<?xml version="1.0"?>
<opencv_storage>
<opencv_ml_svm>
  <format>3</format>
  <svmType>C_SVC</svmType>
  <kernel>
    <type>LINEAR</type></kernel>
  <C>1.</C>
  <term_criteria><epsilon>1.1920928955078125e-07</epsilon>
    <iterations>1000</iterations></term_criteria>
  <var_count>324</var_count>
  <class_count>8</class_count>
  <class_labels type_id="opencv-matrix">
    <rows>8</rows>
    <cols>1</cols>
    <dt>i</dt>
    <data>
      0 2 3 4 5 6 7 9</data></class_labels>
  <sv_total>28</sv_total>
  <support_vectors>
    <_>
      -2.49235760e-02 5.31421900e-02 1.93383191e-02 -2.50459556e-02
      -6.25791401e-02 -2.51745572e-03 -9.74216164e-05 -7.95984082e-03
      -2.93196738e-02 4.27700542e-02 6.60782382e-02 1.25829196e-02
      -1.37336226e-02 -7.55256936e-02 -4.02954780e-03 0. -1.18403593e-02
      -6.32345502e-04 1.96395926e-02 5.89852408e-02 -6.16779365e-03
      -1.62280183e-02 -2.56305896e-02 -7.70223793e-03 -2.79668090e-03
      -2.01106351e-03 -9.91021842e-03 6.45159706e-02 6.80765510e-02
      4.41593817e-03 -6.59538880e-02 -7.34014884e-02 -7.04782968e-03
      -1.85655511e-03 -2.97694490e-03 3.55869867e-02 8.56614634e-02
      3.10212355e-02 2.12694821e-03 -6.40152721e-03 -2.95811594e-02
      -1.08512002e-03 0. -5.60566958e-04 5.17818667e-02 4.73956242e-02
      -3.14697959e-02 -1.00784175e-01 -2.60858443e-02 -2.85521708e-02 0.
      8.36563762e-03 4.31796499e-02 7.43167400e-02 8.61483440e-02
      5.37556654e-04 -7.97843486e-02 -3.76437828e-02 -4.49052565e-02
      -7.78926595e-04 0. -7.07208063e-04 8.53968188e-02 8.24993029e-02
      -9.62380692e-02 -1.01210803e-01 -1.01258121e-01 -2.66263802e-02 0.
      1.27987098e-02 2.73350440e-02 8.41614529e-02 -5.39313210e-03
      -3.60941850e-02 -7.75209293e-02 -1.51459575e-02 -2.98806243e-02
      1.50035461e-03 3.83772328e-02 6.71578571e-02 4.84945923e-02
      -2.49858294e-02 -2.42889244e-02 -7.26318210e-02 -1.79051608e-02
      -5.16148508e-02 -4.12437879e-02 4.85696159e-02 4.59401906e-02
      -1.32226683e-02 2.36662254e-02 -3.91143858e-02 -7.74117187e-02
      -4.44562919e-02 -3.21858674e-02 4.91832523e-03 7.07703829e-02
      5.22802621e-02 6.91921413e-02 2.01976206e-03 -8.14733282e-03
      -3.85253765e-02 -5.92500754e-02 -5.25800744e-03 9.21902154e-03
      6.55342638e-02 3.16855796e-02 1.89292394e-02 1.32697588e-02
      4.99025062e-02 3.61740887e-02 -4.86685894e-04 -4.86685894e-04
      -3.58012579e-02 -2.07093861e-02 -6.21368969e-03 -1.27176545e-03
      5.47537617e-02 3.63693424e-02 2.06070952e-02 -1.81117468e-02
      -3.90277691e-02 -3.18721868e-02 -1.95681062e-02 -9.90544632e-03
      6.82163425e-03 -8.82607512e-03 3.79693252e-03 8.96348432e-03
      1.64073054e-02 -4.86685894e-04 -4.86685894e-04 -4.86685894e-04
      -9.09105060e-04 -4.63700108e-03 -4.46070097e-02 -6.16965182e-02
      -1.98191367e-02 6.85092667e-03 1.96608286e-02 -2.36254465e-02
      2.32891664e-02 3.10514960e-03 -1.53100363e-03 7.40789101e-02
      -2.83263642e-02 -7.46236444e-02 -1.32966926e-02 -1.26713011e-02
      -1.74298813e-03 -1.44812150e-03 -1.51344796e-03 7.30383024e-02
      7.38479644e-02 -5.25372960e-02 -8.01125392e-02 -4.93249297e-02
      -1.83735341e-02 -2.14621983e-03 2.13747565e-02 3.58532295e-02
      7.38433897e-02 3.96492034e-02 -7.47901127e-02 -8.03727061e-02
      -1.08813476e-02 -3.37747624e-03 -2.56109633e-03 1.00140029e-03
      2.27265544e-02 4.47166264e-02 7.39730150e-02 -3.82270664e-02
      -3.71038094e-02 -6.23255931e-02 -2.91453823e-02 -1.01232957e-02
      -6.06954098e-04 1.53110269e-03 5.74796908e-02 -1.28227446e-04
      -2.72471868e-02 -5.55071793e-02 -1.77351404e-02 -8.20450485e-03
      6.00828836e-03 6.05387725e-02 2.80785859e-02 3.21004726e-02
      -4.34774999e-03 -5.03054913e-03 3.34488112e-03 -3.29999849e-02
      -1.12495096e-02 9.26011615e-03 7.40831643e-02 1.59580112e-02
      -4.68572555e-03 1.66467130e-02 -1.09444102e-02 -1.12495096e-02
      -2.25579161e-02 -4.79836799e-02 -2.14580856e-02 3.70083470e-03
      -7.20292563e-03 -1.12770433e-02 -1.54344901e-03 1.05226003e-02
      7.62671158e-02 2.19868664e-02 -1.12495096e-02 -2.94108652e-02
      1.00629926e-02 -4.61771293e-03 -1.20153632e-02 -7.29546323e-03
      -9.02818647e-06 -2.70156816e-05 -1.39283220e-04 -4.52416157e-03
      -1.94914301e-03 -4.52416157e-03 1.50394430e-02 1.55167077e-02
      -1.24648381e-02 -2.64943801e-02 -2.44628862e-02 -2.84015550e-03
      -1.52833422e-03 -7.31611298e-03 2.78505199e-02 4.73848581e-02
      -1.60999887e-03 -2.62312684e-02 6.32139418e-05 1.89159487e-04 0.
      -1.09408759e-02 2.13310923e-02 -4.52416157e-03 3.97486128e-02
      -3.57989967e-02 -2.02355199e-02 -1.20924274e-02 -5.40082529e-02
      -4.43280302e-03 3.67729738e-03 -5.87430457e-03 -1.33693079e-02
      5.36164977e-02 -4.52416157e-03 4.84457053e-02 -4.91412319e-02
      -8.14673752e-02 -1.20734395e-02 -1.35881954e-03 -4.04750521e-04
      2.44807405e-03 4.14575450e-02 5.16424179e-02 7.53369629e-02
      -1.78165361e-02 -5.39806150e-02 -6.18133545e-02 -3.80787998e-02
      -4.79020411e-03 -1.11706695e-03 4.96823387e-03 7.54967406e-02
      -4.66525136e-03 -3.34495828e-02 -8.11010748e-02 -7.67723098e-03
      9.09595634e-04 3.68482106e-05 1.52203429e-03 2.96518616e-02
      2.22251527e-02 6.93441927e-02 1.06152259e-02 -6.65582716e-02
      -1.02516562e-02 -3.55701707e-02 -7.77629437e-04 2.50394340e-04
      3.65206343e-03 7.41601735e-02 6.41799197e-02 3.45811099e-02
      1.21261021e-02 -1.58837959e-02 -9.11535844e-02 -1.18997358e-02
      -2.46501667e-03 -1.07706909e-03 1.55102378e-02 6.37677684e-03
      3.06526031e-02 6.77643865e-02 4.51496653e-02 -3.23736295e-02
      -2.70334911e-02 -1.58954284e-03 -7.38925766e-04 -7.36689719e-04
      6.28277287e-02 5.82116395e-02 5.12216836e-02 7.27942726e-03
      -9.63488668e-02 -5.13644330e-03 -2.24966388e-02 -4.54548001e-03
      8.40002485e-03 3.35307646e-04 3.75090092e-02 4.53985706e-02
      -1.63614564e-02 -5.42194657e-02 -1.09693995e-02 -3.36785689e-02
      -6.26315782e-03 -1.49339810e-02</_>
    <_>
      1.60434917e-02 6.18786700e-02 -9.64459218e-03 -2.02239025e-02
      -7.86464065e-02 -1.29472250e-02 -5.64964466e-06 -1.88801062e-06
      -3.78094204e-02 7.49263912e-02 7.61262476e-02 1.20022222e-02
      -1.57926418e-02 -9.44825113e-02 -9.70941037e-03 -7.37613591e-05
      -2.46497457e-05 6.87751407e-03 3.76464985e-02 7.02387318e-02
      -9.64459218e-03 -2.19501629e-02 -3.34512964e-02 -1.22456448e-02 0.
      0. -6.94359536e-04 8.44989344e-02 7.61127695e-02 -1.10891098e-02
      -5.69679402e-02 -9.18842033e-02 -8.63015652e-03 -9.98124233e-06
      -3.33555568e-06 5.27434684e-02 8.06774348e-02 2.16130652e-02
      -2.76618134e-02 -8.39215331e-03 -6.55552819e-02 -3.44452751e-03
      -1.90910723e-04 -9.85837169e-03 3.57214883e-02 4.31219861e-02
      -7.04752933e-03 -2.40235925e-02 -4.37644776e-03 -9.39491540e-02
      -5.15026599e-03 1.01299714e-02 3.39289345e-02 6.16828911e-02
      8.92397687e-02 -9.19515919e-03 -8.33333656e-02 -6.25667274e-02
      -1.40359089e-01 -1.71611868e-02 -3.06437869e-04 -1.88152790e-02
      7.55709633e-02 8.67369249e-02 -1.64152663e-02 -5.65293357e-02
      -2.66218446e-02 -1.39938191e-01 -3.76651697e-02 1.44697949e-02
      5.25904819e-03 6.34998977e-02 1.00861210e-02 5.27745988e-06
      -9.37455334e-03 -1.50007904e-02 -6.56740293e-02 -3.19769830e-02
      4.73313071e-02 8.63507465e-02 5.75881600e-02 -2.64997333e-02
      5.11982180e-05 -1.39323147e-02 -2.29808129e-02 -7.86345229e-02
      -6.67827427e-02 7.21472688e-03 7.46207386e-02 -4.36646380e-02
      3.29765901e-02 2.69410921e-05 -2.26696860e-03 -4.27879812e-03
      -1.00852154e-01 -4.40746099e-02 7.83141553e-02 6.29948154e-02
      8.26322809e-02 4.53033391e-03 1.11507405e-04 -3.18770763e-03
      -7.16394791e-03 -2.19312795e-02 -2.19312795e-02 4.00766954e-02
      4.11925390e-02 1.60767138e-02 1.59161426e-02 5.97261675e-02
      4.78266515e-02 3.24753709e-02 -7.80876260e-03 -4.86624008e-03
      -4.06589136e-02 -6.02859352e-03 1.37571234e-03 7.42239803e-02
      6.97523803e-02 6.51926687e-03 -3.77085917e-02 -5.49518429e-02
      -6.91256858e-03 -3.19904387e-02 -7.35681271e-03 2.56244801e-02
      -2.59515028e-02 4.56075883e-03 1.11345267e-02 3.43520418e-02
      -7.80876260e-03 4.96228710e-02 -7.80876260e-03 7.18832621e-03
      -4.70891269e-03 -6.47041649e-02 -1.08375810e-02 -7.78973401e-02
      -3.31404842e-02 7.13524921e-03 1.54652484e-02 -1.77538544e-02
      2.39306279e-02 -5.79209113e-03 9.62081999e-02 1.76322330e-02
      -4.99297827e-02 -6.53755814e-02 -9.29884613e-02 -1.42402546e-02
      -1.23669840e-02 -2.42579053e-03 9.51928124e-02 9.82372910e-02
      -1.18829170e-03 -1.65913086e-02 -1.75923314e-02 -8.86403620e-02
      -5.20757735e-02 -2.60419175e-02 4.39107940e-02 9.60930213e-02
      5.42913117e-02 -4.42631310e-03 -8.68546814e-02 -6.06533661e-02
      -8.38784203e-02 -1.90351158e-02 -2.11664271e-02 3.18441391e-02
      6.03688881e-02 7.80851245e-02 4.77700010e-02 2.79750004e-02
      -1.35782091e-02 -8.61088932e-02 -8.77020210e-02 -9.06454548e-02
      -3.80428769e-02 5.43796197e-02 1.44724362e-02 -2.18100613e-03
      -4.37918032e-04 -1.04878405e-02 -6.91527948e-02 -6.62528910e-03
      5.79743013e-02 4.12777178e-02 6.00918978e-02 1.64115615e-03
      -3.24554113e-03 -5.79168380e-04 -1.60306692e-02 -6.10794453e-03
      4.30574343e-02 9.05245021e-02 2.43322793e-02 7.50839245e-03
      8.42646044e-03 1.55399712e-02 2.23147720e-02 -1.88212804e-02
      -1.25538530e-02 -1.94755681e-02 -6.00936897e-02 -4.50120941e-02
      -1.51639068e-02 -5.54449391e-03 -2.71683699e-03 -6.10535406e-03
      -1.75652485e-02 -6.10794453e-03 1.70835573e-02 1.94544364e-02
      -7.63463136e-03 -8.68981704e-03 -1.94204841e-02 -2.39674468e-04
      -1.12387381e-04 -1.09037256e-03 3.92605271e-03 2.55608056e-02
      3.92605271e-03 1.44074187e-02 1.86921451e-02 -2.63065137e-02
      -2.44111698e-02 -6.12388141e-02 -1.20775737e-02 3.10276961e-03
      8.48176237e-03 1.62712727e-02 6.45437092e-02 5.08351065e-03
      -1.42626697e-02 -9.02990717e-03 6.01855754e-05 -9.49398891e-05
      1.10490201e-02 4.43148129e-02 3.92605271e-03 3.92605271e-03
      -1.04164146e-02 -1.52919292e-02 -7.48215765e-02 -7.61925131e-02
      -4.06175712e-03 2.28520297e-03 5.30837243e-03 -1.29754040e-02
      9.68546048e-03 3.92605271e-03 4.59544398e-02 -2.61390749e-02
      -7.67570883e-02 -1.61515754e-02 -1.68791655e-02 -1.62911899e-02
      -2.69863959e-02 4.61859666e-02 3.88049446e-02 4.73781899e-02
      4.15220670e-02 4.97242948e-03 -3.92523548e-03 -3.06562241e-02
      -5.14399447e-02 -7.99124092e-02 -3.83838229e-02 3.27918455e-02
      4.25941199e-02 -7.28528649e-02 -7.94498324e-02 -6.26037642e-03
      -2.17908528e-02 -3.22795585e-02 -6.37164637e-02 1.85368098e-02
      5.56107052e-02 3.49990092e-02 2.54766643e-02 -1.31594501e-02
      -1.77313352e-03 -3.90459672e-02 -5.57620190e-02 -7.94642940e-02
      -5.19192405e-02 1.55915590e-02 3.76206711e-02 4.53228168e-02
      2.32775230e-02 -6.05375459e-03 -5.13379974e-03 -1.46762738e-02
      -4.85897735e-02 -4.06040885e-02 -2.33891848e-02 -7.49761006e-03
      4.67375712e-03 1.23601011e-03 1.23601011e-03 1.23601011e-03
      6.89193166e-06 -7.58991664e-05 -7.75291817e-03 -1.53751364e-02
      1.23601011e-03 4.68679741e-02 1.87187511e-02 5.04828710e-03
      -6.82057720e-03 -8.96716397e-03 -7.62467906e-02 -2.26649642e-02
      -3.96547168e-02 -3.32953073e-02 -2.34989263e-03 1.23601011e-03
      1.04801077e-02 -1.86876357e-02 -1.55114267e-05 -4.61155505e-05
      7.07415398e-04 -1.34161888e-02</_>
    <_>
      2.91397236e-02 8.05573761e-02 8.09939951e-02 2.10658181e-02
      1.68087222e-02 0. -2.15140913e-04 -7.18964220e-05 5.75419655e-03
      7.92567283e-02 2.54501845e-03 -7.03518838e-02 1.54307554e-03
      5.88569557e-04 0. -1.91932020e-04 -6.41403894e-05 3.26749273e-02
      2.41047200e-02 -4.06363606e-02 -3.60484198e-02 7.31968805e-02
      5.11465035e-02 2.94702302e-04 -4.74472501e-04 -1.93745960e-04
      4.84088156e-03 5.57392761e-02 -3.60484198e-02 -5.66179343e-02
      7.49551132e-03 3.30609386e-03 -4.16892610e-04 -2.04913536e-04
      -2.09219957e-04 4.73459736e-02 9.63361412e-02 -5.19621260e-02
      -8.08763802e-02 0. 1.12430222e-04 0. -4.10623470e-05
      2.76797218e-03 6.54060319e-02 3.15247029e-02 -8.61072987e-02
      -8.93535241e-02 -3.42564803e-04 -3.39377373e-02 -1.89860631e-03
      3.35919601e-03 3.93457264e-02 7.64291584e-02 9.04614925e-02
      -7.46476948e-02 -8.47384185e-02 -1.12586329e-03 1.15688941e-04
      -6.87607971e-05 -2.32655366e-05 -3.09883217e-05 9.93490815e-02
      7.83566460e-02 -8.99780914e-02 -8.98767114e-02 -7.97777844e-04
      -8.93728659e-02 -5.29755987e-02 1.56288575e-02 -8.54104105e-03
      7.62676671e-02 -9.91364289e-03 -5.06561622e-02 -3.52477320e-02
      -1.13254192e-03 -1.27172574e-01 -7.28144962e-03 2.31157206e-02
      6.88804835e-02 3.55796851e-02 3.57716740e-03 5.13306040e-05
      1.53600748e-04 -7.91538507e-04 -9.65702757e-02 2.31280550e-02
      6.82866126e-02 8.41514915e-02 1.30388243e-02 1.84762441e-02
      -3.92690040e-02 -1.73269529e-02 -1.97103806e-03 -1.18845351e-01
      -5.91188893e-02 8.86025429e-02 2.55806092e-02 6.66248649e-02
      5.15242200e-03 9.18402075e-05 2.74820311e-04 -3.06372123e-04
      -3.97204086e-02 7.99716488e-02 8.87108743e-02 4.47690450e-02
      2.54922621e-02 1.11465054e-02 -3.21270972e-02 -1.22706797e-02
      6.57363683e-02 5.10972785e-03 1.15339207e-02 -1.14247938e-04
      -6.74537587e-05 2.32197065e-03 6.40022978e-02 -1.77033171e-02
      -3.49962376e-02 1.41958911e-02 -5.69911906e-03 2.94515700e-03
      -8.60843994e-03 -8.16526916e-03 2.10660845e-02 -1.02669781e-03
      -1.99141148e-02 -2.17130464e-02 1.63126308e-02 -1.22706797e-02
      7.70227313e-02 8.09632540e-02 3.22152898e-02 1.91582106e-02
      -4.10937071e-02 -2.89264359e-02 -8.63474086e-02 -4.95145970e-04
      -3.27809416e-02 2.40635201e-02 2.94638239e-02 2.14639157e-02
      1.44580025e-02 7.27732480e-02 -5.99723980e-02 -7.53327012e-02
      -3.11535457e-03 -8.67030025e-03 -2.34327730e-04 -5.14471252e-03
      -5.19757904e-03 7.68271387e-02 7.17159063e-02 -7.13659227e-02
      -8.20640251e-02 -1.97993200e-02 -7.76484609e-02 -4.56676707e-02
      2.72283871e-02 3.32722403e-02 7.60279000e-02 9.98335332e-03
      -1.38739748e-02 -7.61855692e-02 -2.78101279e-03 -2.11914331e-02
      -1.56218492e-04 -1.60111897e-02 1.62119046e-02 1.58798080e-02
      1.58798080e-02 2.27767471e-02 4.25630016e-03 -3.13086063e-02
      -7.51104504e-02 -8.02610908e-03 2.95276032e-03 5.32113481e-03
      -3.02108936e-03 8.18798132e-03 -1.69639662e-02 -8.72243196e-03
      -1.79184247e-02 -5.32570593e-02 -5.67007288e-02 6.28051311e-02
      2.54230257e-02 5.39112501e-02 -3.63220810e-03 -5.40438941e-06
      8.85583740e-03 6.92300731e-03 9.95081384e-03 2.83571500e-02
      7.20434040e-02 6.80419663e-03 -9.05267335e-03 -2.17323657e-02
      1.79142319e-02 7.53026903e-02 -2.40031369e-02 -3.50982547e-02
      -3.00411209e-02 -2.05385108e-02 -2.37116478e-02 -3.67213301e-02
      -4.52277884e-02 2.12314278e-02 1.03482611e-01 6.46941289e-02
      9.95081384e-03 -2.25210227e-02 -6.76550046e-02 -9.20801684e-02
      -9.13450494e-02 -3.98363546e-02 8.80342668e-06 2.63431157e-05
      -4.29181941e-03 -1.69069003e-02 6.40665889e-02 5.76317236e-02
      3.57571170e-02 -4.25607571e-03 -4.80484106e-02 2.31975573e-03
      -8.24619457e-03 -2.28987006e-03 -3.76336053e-02 1.08347880e-02
      4.22123633e-02 6.70006275e-02 -1.69069003e-02 -9.26418751e-02
      -2.43710805e-04 1.27154213e-04 -7.31361913e-04 -5.24400845e-02
      7.39013776e-02 4.60354686e-02 6.27205893e-02 -5.52608930e-02
      -3.61745730e-02 1.93697587e-03 5.45038958e-04 0. 1.94011733e-03
      7.08204834e-03 3.26686166e-02 7.63528794e-02 -1.69069003e-02
      3.21948365e-03 1.02821048e-02 -4.95840749e-03 -3.89343535e-04
      -6.01436663e-03 1.12972348e-05 -3.66243324e-03 4.68598604e-02
      3.21948365e-03 3.21948365e-03 5.03865667e-02 2.05632560e-02
      -6.81318296e-03 -1.98983029e-02 -1.89415540e-03 -1.52164903e-02
      3.59999971e-03 3.21948365e-03 3.21948365e-03 7.15031195e-03
      5.36283420e-04 0. 3.57005093e-03 4.51889209e-05 1.86655158e-03
      3.64056118e-02 3.21948365e-03 3.21948365e-03 5.03671542e-02
      9.50225908e-03 -8.96348245e-03 -8.33764076e-02 -1.29981497e-02
      -8.30783546e-02 -1.72252283e-02 3.21948365e-03 1.52884256e-02
      5.17962128e-02 6.88821077e-02 1.49832619e-03 -2.24193353e-02
      -5.85181266e-03 -1.94875523e-02 -1.02649080e-02 -3.71599682e-02
      -6.36945665e-02 7.21750548e-03 6.23510219e-02 6.11928441e-02
      1.43194664e-02 -1.65753439e-02 -3.78669128e-02 -4.15798500e-02
      -6.51569441e-02 1.68150850e-02 5.53045645e-02 2.39950456e-02
      -3.56056988e-02 -6.41367659e-02 -1.89424269e-02 -7.14596063e-02
      -2.23068576e-02 -4.00373116e-02 -4.67044637e-02 2.11045658e-03
      1.43194664e-02 -4.67125745e-03 -1.24712447e-02 -1.25976559e-02
      -8.41199420e-03 -2.78898771e-03 -5.42101525e-02</_>
    <_>
      -4.03764732e-02 6.42571524e-02 4.08779345e-02 3.30455345e-03
      -5.74200563e-02 -4.05469356e-04 3.64336156e-05 1.21754747e-05
      -4.38312143e-02 -1.68367627e-03 6.82388246e-02 3.50950249e-02
      1.24320830e-03 -1.03207473e-02 -1.02553189e-04 0. -3.04851122e-03
      -4.08057421e-02 1.79777369e-02 3.67323123e-02 2.38716062e-02
      2.46521179e-02 -2.09135972e-02 -8.60411965e-04 0. 0.
      -6.99880952e-03 1.45964576e-02 -1.51498604e-03 9.16687120e-03
      7.87643803e-05 -6.81129172e-02 -3.11979987e-02 -1.08133652e-03
      -4.64380495e-02 -9.01363231e-03 1.27350288e-02 3.06747146e-02
      7.37939402e-03 0. -5.04157618e-02 -1.54359629e-02 -2.35220883e-02
      -1.32737514e-02 -3.70247290e-02 4.75262739e-02 3.11414734e-03
      5.49620949e-04 0. -9.17172208e-02 -2.29526274e-02 -2.70207562e-02
      2.89119780e-02 4.00130525e-02 5.45608997e-02 -7.09444564e-03
      -2.13668309e-03 1.08898537e-04 -9.16236043e-02 -5.16047627e-02
      -6.69819070e-03 -3.82958874e-02 5.07453643e-02 8.35814103e-02
      4.64245531e-05 1.28103129e-04 8.13443330e-05 -9.12836269e-02
      -2.40517613e-02 3.88858444e-03 2.37770714e-02 8.12060684e-02
      1.73079688e-02 -6.66781375e-03 -1.92717568e-03 -8.34397972e-03
      -1.02965765e-01 -1.81253778e-03 3.90394442e-02 7.03193322e-02
      6.12434410e-02 -3.99969984e-03 -2.62016710e-02 -7.87824765e-03
      -3.26061659e-02 -7.83104300e-02 -3.89192291e-02 4.06757332e-02
      4.31288332e-02 1.09033547e-02 2.77324002e-02 6.05647838e-05
      1.81232666e-04 -3.99553869e-03 -9.62567702e-02 2.47808825e-03
      7.03079626e-02 5.27136885e-02 7.14110136e-02 4.18087607e-03
      1.91347463e-05 2.69524229e-04 -1.43564437e-02 -3.25082541e-02
      2.65304036e-02 4.23275754e-02 3.60690355e-02 2.05827560e-02
      1.17102377e-02 3.23560610e-02 2.16188915e-02 2.32556034e-02
      -3.64135280e-02 9.02475696e-03 0. 0. -2.08086291e-04
      5.18882051e-02 1.83974411e-02 7.74540007e-03 1.14364009e-02
      -7.44934678e-02 -2.74900179e-02 -6.36990182e-04 -2.69066207e-02
      1.19388113e-02 8.69642128e-04 3.53623624e-03 -4.87338100e-03
      -4.48009605e-03 -3.64135280e-02 6.49239570e-02 6.53076321e-02
      2.59755906e-02 1.62445996e-02 1.85770374e-02 4.44095815e-03
      -2.48743221e-03 -4.59222309e-03 -5.29380143e-02 -6.02396950e-03
      2.19439398e-02 4.22156937e-02 6.36644512e-02 7.31946751e-02
      8.11232626e-03 6.51462935e-04 3.22947861e-04 -8.36046860e-02
      -3.83120663e-02 -3.67970439e-03 -1.79900527e-02 7.33130425e-02
      7.89971799e-02 2.04162337e-04 3.98303557e-04 2.33981409e-04
      -8.00925046e-02 -2.91932840e-02 8.89841560e-03 3.64168137e-02
      7.89971799e-02 7.43717179e-02 5.64800762e-03 -6.88902684e-04
      -7.70199040e-05 -8.36597681e-02 -6.19120486e-02 -6.24588504e-02
      2.72474699e-02 7.91702643e-02 6.79042637e-02 4.12865579e-02
      3.32302265e-02 9.15059263e-06 -7.80477002e-02 -7.62829259e-02
      -8.17121193e-02 -1.34200761e-02 2.86960285e-02 1.15384627e-02
      -1.35259447e-03 -1.39032281e-03 -5.22116199e-03 -5.52328303e-02
      3.04278126e-03 5.75463437e-02 3.32448184e-02 4.86025736e-02
      1.24774803e-03 -2.23919889e-03 -5.11711137e-03 -9.76816844e-03
      -4.30820091e-03 4.19666991e-02 7.22616687e-02 1.96544565e-02
      6.03233185e-03 -3.23410193e-03 2.17044353e-02 -4.30820091e-03
      -4.13643895e-03 -2.80020442e-02 -1.39829582e-02 -3.79086211e-02
      -1.00138718e-02 -3.80104668e-02 -1.14689572e-02 2.01469217e-03
      -4.30820091e-03 1.34504940e-02 -4.30820091e-03 1.39647657e-02
      1.57143679e-02 1.25634077e-03 -8.70064739e-03 -9.64428764e-03
      -9.63003933e-03 -2.07131915e-02 -8.05101171e-02 -1.53339216e-02
      4.05382700e-02 6.21975809e-02 3.34223770e-02 3.43688689e-02
      3.72675881e-02 -2.59694440e-04 -1.19734015e-02 -5.44878282e-02
      -7.01020136e-02 -2.45845150e-02 -1.45502156e-03 6.51761964e-02
      6.51615933e-02 -6.21843524e-02 -1.45294135e-02 -3.25096734e-02
      -6.39555380e-02 -5.57997860e-02 3.55754085e-02 5.32617345e-02
      4.45719846e-02 1.08820694e-02 3.31592709e-02 -2.13261554e-03
      -1.87606700e-02 -4.29199114e-02 -6.55624866e-02 -1.48700504e-02
      1.67063661e-02 6.51543736e-02 5.90299405e-02 7.54819661e-02
      8.44803732e-03 7.01525860e-05 -5.84966328e-04 -6.07773662e-02
      -6.08042888e-02 -5.77846244e-02 4.24441360e-02 7.54819661e-02
      5.40891737e-02 4.70015034e-02 1.93021502e-02 -2.04538679e-04
      -5.62596396e-02 -6.08133897e-02 -6.07549660e-02 -1.00304801e-02
      1.94294713e-02 7.15606213e-02 5.75415650e-03 4.12231020e-04
      -7.55561981e-04 -5.79270311e-02 -6.07769825e-02 -5.15517108e-02
      -6.14863448e-03 6.71072826e-02 3.71779874e-02 4.38644253e-02
      1.48008689e-02 -3.41217325e-04 -4.15871963e-02 -5.93908392e-02
      -4.72969674e-02 -5.71472123e-02 1.51399402e-02 1.87973343e-02
      4.49780300e-02 1.07762692e-02 3.07392003e-03 -6.08982844e-03
      -8.15816503e-03 -3.20282839e-02 -9.61908232e-03 -4.44303229e-02
      -1.60322338e-02 1.70707032e-02 2.84313713e-03 2.84313713e-03
      2.84313713e-03 2.17106761e-04 -6.16123725e-05 -2.05897704e-05
      -1.10025425e-02 2.84313713e-03 4.46777642e-02 3.63598242e-02
      7.30893528e-03 -1.49644248e-03 -3.39568290e-03 -3.82742891e-03
      -3.73424739e-02 -5.02283871e-02 -2.62738951e-02 3.48844938e-03
      2.84313713e-03 -2.28657741e-02 -7.63784256e-03 -5.98844723e-04
      -2.34456325e-04 5.05513512e-04 -2.27635205e-02</_>
    <_>
      9.79579240e-03 2.58611701e-02 1.34453853e-03 1.09822350e-02
      2.09247656e-02 -3.98105680e-04 -2.57489592e-05 -8.60484306e-06
      1.55972986e-04 1.34453853e-03 1.34453853e-03 -3.84607352e-02
      6.69390429e-04 1.58458948e-03 0. -1.30700064e-04 -4.36776645e-05
      -4.64782398e-03 1.73838679e-02 3.02717723e-02 1.34453853e-03
      3.22904298e-03 2.15133894e-02 2.76103587e-04 -1.30700064e-04
      -4.36776645e-05 6.77462481e-03 1.34453853e-03 1.34453853e-03
      -2.65768226e-02 -1.26465261e-02 -4.88585606e-02 -3.33740674e-02
      -1.55663546e-02 -6.55164986e-05 -1.49669824e-02 3.36378142e-02
      -4.09562662e-02 -1.86315330e-03 0. 4.60296978e-05 0.
      -2.07233552e-05 3.76898795e-03 -6.91962196e-03 -1.12787513e-02
      -4.59230598e-03 8.74695659e-04 0. -2.40631169e-04 0.
      1.39593380e-02 3.33016291e-02 3.36378142e-02 3.71455662e-02
      -1.31384404e-02 -8.77316147e-02 -3.24043036e-02 -1.09977178e-01
      -5.85358590e-02 -2.68952604e-02 -1.03880730e-05 6.37952015e-02
      3.36378142e-02 -5.96894361e-02 -1.10088311e-01 -5.45795858e-02
      -8.82194936e-02 -1.47888958e-02 -3.98972584e-03 3.79918665e-02
      3.36378142e-02 -5.10321110e-02 7.02907130e-07 3.89299239e-05 0.
      1.51717057e-03 2.61479616e-03 3.77463773e-02 1.82744954e-02
      -1.03442708e-03 -1.79800484e-02 -2.46917753e-05 -1.86470024e-05 0.
      1.91742145e-02 3.90420249e-03 1.06453514e-02 1.06453514e-02
      -5.37705347e-02 -6.29456490e-02 -2.47302148e-02 -2.75250319e-02
      -1.08989784e-02 -6.58310531e-03 -2.99922284e-03 1.06453514e-02
      4.25105318e-02 1.06453514e-02 -2.16855705e-02 1.42935678e-05
      2.63730006e-04 6.18011109e-04 1.06453514e-02 1.06453514e-02
      1.06453514e-02 -3.07588354e-02 -2.66254693e-02 7.91698042e-03
      5.35774752e-02 -1.76615007e-02 -2.76938081e-03 -1.76615007e-02
      1.61116756e-02 -1.46396642e-05 -4.89231888e-06 3.22182756e-03
      4.75686677e-02 4.51504849e-02 -4.85095084e-02 -4.25723717e-02
      -8.18196833e-02 -1.82354320e-02 -8.54920875e-03 -7.33847810e-06
      7.41819153e-03 5.07434888e-04 -8.50828423e-04 -5.85742071e-02
      -4.26615253e-02 -1.76615007e-02 8.36904496e-02 1.05783850e-01
      4.37644310e-02 2.76078433e-02 2.75442451e-02 -2.26203771e-03
      -4.45274003e-02 -6.17773458e-02 -4.55024354e-02 -9.60018672e-03
      7.10983202e-02 7.11262301e-02 1.08293757e-01 1.02234162e-01
      1.36011541e-02 -8.49811062e-02 -8.51441398e-02 -1.18596338e-01
      -4.05575037e-02 -2.26226319e-02 -1.07444373e-06 1.08487397e-01
      7.32566416e-02 -3.02970335e-02 -1.18672654e-01 -7.62344524e-02
      -1.12678908e-01 -1.33687593e-02 1.05060851e-02 5.92764132e-02
      1.01259306e-01 1.23716399e-01 7.64456717e-03 -3.32012586e-02
      -7.74844140e-02 -1.18689142e-01 -7.34440759e-02 -1.12565525e-01
      4.26453799e-02 1.33449510e-01 1.07720725e-01 6.57907203e-02
      2.64751222e-02 -3.55539136e-02 -1.09233767e-01 -4.09083441e-02
      -1.15407683e-01 -4.14794087e-02 8.12451243e-02 -4.11196910e-02
      -1.79533940e-02 -2.05167346e-02 -2.41204556e-02 -2.45910194e-02
      -8.59911274e-03 5.12515474e-03 2.44266428e-02 2.99819522e-02
      -9.51430853e-03 3.25752553e-05 1.22125400e-02 -1.48807550e-02
      2.00996287e-02 -3.63317877e-02 6.07483927e-03 -3.48133943e-03
      -9.55326483e-03 3.09464894e-03 1.55508397e-02 3.93624716e-02
      -4.03846018e-02 -2.13533919e-02 -5.15670376e-03 -4.98588048e-02
      -3.09447385e-02 -2.62762420e-02 -6.29727868e-03 -9.44333058e-03
      2.00996287e-02 -1.15639260e-02 2.00996287e-02 -1.99608095e-02
      1.48225417e-02 -4.21801861e-03 -1.00806709e-02 -1.23228598e-02
      4.46736303e-05 -7.64874928e-03 -4.25958298e-02 -1.37362173e-02
      -2.13046074e-02 6.83854744e-02 5.65366782e-02 5.66683225e-02
      6.37961105e-02 3.62987001e-03 -2.65525584e-03 -2.27814857e-02
      -1.06011085e-01 -1.00942910e-01 1.49977636e-02 1.08153917e-01
      1.09501876e-01 -1.00390323e-01 8.72479941e-05 2.61078065e-04
      -5.62912486e-02 -8.19142833e-02 -1.23231467e-02 4.15854789e-02
      7.57533386e-02 6.42808899e-03 5.61454780e-02 2.64116726e-03
      7.75415683e-04 -2.96901222e-02 -1.11764029e-01 -8.28865618e-02
      -1.87441502e-02 1.03122011e-01 9.60222557e-02 1.26744598e-01
      1.42334998e-02 1.18195116e-04 -9.00353584e-03 -1.11822203e-01
      -1.11867554e-01 -1.06779940e-01 5.95095754e-02 1.27050042e-01
      6.24687225e-02 7.23912343e-02 3.51144150e-02 -2.81662354e-03
      -5.91418296e-02 -6.06031455e-02 -1.11784458e-01 -7.46185780e-02
      6.35598451e-02 1.25730217e-01 9.70593933e-03 7.27959035e-04 0.
      -6.80732504e-02 -1.11821555e-01 -1.09349206e-01 1.27024287e-02
      8.81333798e-02 2.38691401e-02 6.83267564e-02 2.26416886e-02 0.
      -1.03957821e-02 -7.35880733e-02 -1.11174606e-01 -6.91960081e-02
      1.60854906e-02 2.76499260e-02 4.19791006e-02 1.62349250e-02
      -9.04425327e-03 -1.40245899e-03 -2.85301614e-03 -5.35307564e-02
      -4.13042344e-02 -5.15247844e-02 -1.18233887e-02 -7.96662271e-03
      -5.47083840e-03 -5.47083840e-03 2.31335573e-02 8.03597213e-04
      -1.56687107e-04 -1.09712892e-04 -2.31724605e-02 -5.47083840e-03
      7.92194679e-02 1.42115280e-02 9.12642851e-03 2.85435608e-03
      -3.34954867e-03 -1.55883562e-02 -2.48681754e-02 -9.48872864e-02
      -4.38518040e-02 3.26940529e-02 -5.47083840e-03 -3.14837918e-02
      5.37842847e-02 -6.45469292e-04 1.47487677e-04 9.94766364e-04
      -3.49354930e-02</_>
    <_>
      1.37930661e-02 4.84975204e-02 5.37043251e-02 -7.12072896e-03
      -8.30563977e-02 -4.95912060e-02 -1.87148266e-02 -1.15677090e-02
      -1.70211475e-02 6.13340959e-02 6.35719821e-02 3.82832885e-02
      9.94794769e-04 -9.28826556e-02 -2.85514276e-02 -1.09540811e-02
      -2.89470842e-03 2.22745650e-02 2.79921517e-02 6.01940230e-02
      6.35719821e-02 1.75362285e-02 -4.96946312e-02 -3.58623601e-02
      -9.26798384e-04 0. 5.26823616e-03 6.19628206e-02 6.30934462e-02
      4.83745784e-02 -1.25425821e-02 -9.28281695e-02 -2.27365065e-02
      -2.31699596e-04 0. 4.29478846e-02 7.80448020e-02 2.80323736e-02
      6.72435667e-03 -3.96230316e-05 -3.34092267e-02 0. 0.
      2.04807310e-03 5.00430427e-02 5.04645556e-02 -6.11816859e-03
      5.02276176e-04 -3.01302149e-04 -2.19166907e-03 0. 7.57161109e-03
      3.89940143e-02 7.74626955e-02 5.10751829e-02 -3.26194912e-02
      -3.60735543e-02 1.11505920e-04 -5.93687557e-02 0. 0. 0.
      7.25671202e-02 -2.24262569e-02 -1.00458629e-01 -1.00383982e-01
      -1.13087101e-03 -4.25460795e-03 0. 1.16285477e-02 2.47056428e-02
      1.65397814e-03 8.10902473e-03 -2.10596658e-02 -1.27772428e-02
      -1.23638951e-04 1.99701783e-04 1.41827785e-03 3.97274084e-02
      6.49411529e-02 5.78225181e-02 -3.61385867e-02 -6.98302016e-02
      -3.26499492e-02 -3.09097268e-05 1.69488955e-02 1.80007629e-02
      4.59252968e-02 6.52505979e-02 -9.26483329e-03 -3.99392955e-02
      -6.98126480e-02 -6.97023794e-02 -4.94555570e-04 5.21559129e-03
      4.65265336e-03 6.52214736e-02 4.82982621e-02 5.00940867e-02
      -6.54970258e-02 -6.97856843e-02 -6.96216896e-02 -1.88718457e-02
      -4.55300137e-03 5.05000688e-02 3.13733816e-02 3.28639112e-02
      -3.77408665e-04 1.22567210e-02 4.31105234e-02 5.96819855e-02
      2.88709905e-02 -2.16714982e-02 -4.38064290e-03 -7.28595676e-03 0.
      1.95323071e-03 4.70572077e-02 1.71593372e-02 3.14966142e-02
      -8.59094725e-04 -5.64711988e-02 -8.03405140e-03 -5.69633814e-03 0.
      2.16464754e-02 -1.74739454e-02 -1.28416428e-02 5.62052708e-03
      1.81701779e-02 -2.16714982e-02 1.40825082e-02 2.64648329e-02
      2.37380341e-02 2.45772256e-03 -4.15897779e-02 -7.69393742e-02
      -4.35104556e-02 3.84400273e-03 -2.03998270e-03 -2.07932089e-02
      2.14377064e-02 3.85674126e-02 2.85303257e-02 4.71241325e-02
      -5.49891405e-02 -3.65031809e-02 3.25631001e-04 -8.28108005e-03
      -6.81028643e-04 -2.40549081e-04 0. 6.97460175e-02 2.75718458e-02
      -7.14579523e-02 -7.12544993e-02 1.96188528e-04 3.27528454e-03 0.
      1.99478436e-02 3.41512226e-02 5.88757917e-02 1.60059929e-02
      -6.64487481e-02 -6.58443272e-02 8.14077503e-05 -2.99527752e-03
      -2.72411411e-03 2.26297718e-03 2.59217545e-02 5.76983094e-02
      2.30635013e-02 -3.34350653e-02 -3.24208513e-02 2.92087236e-04
      4.95073106e-03 0. 1.93280051e-03 4.01380798e-03 5.31191677e-02
      -3.28484513e-02 -6.80968016e-02 -6.36679679e-02 2.17925175e-03
      2.91610379e-02 1.10497242e-02 5.65582849e-02 3.06575242e-02
      3.32997404e-02 -2.65456624e-02 -6.80981800e-02 -6.14946969e-02
      -2.88351104e-02 3.88521925e-02 4.23164517e-02 6.41391948e-02
      1.78950056e-02 5.93080942e-04 -1.10542383e-02 -4.14831005e-02
      8.13631620e-03 7.63196731e-03 4.26851735e-02 7.41251046e-03
      1.10157859e-02 1.45078090e-03 -7.50775915e-04 -2.64446028e-02
      -5.24754338e-02 8.13631620e-03 3.61612327e-02 7.38654211e-02
      1.34820063e-02 1.43264774e-02 1.06457155e-03 -1.03725269e-02
      -1.66269597e-02 -9.89654288e-03 -3.61411064e-03 -8.99219594e-04
      -7.24610686e-03 3.28355059e-02 4.58577350e-02 3.52506861e-02
      1.68733932e-02 -2.42370665e-02 -6.48391247e-02 -4.35385220e-02
      -6.65537518e-05 4.58366610e-03 -8.28249566e-03 3.39953378e-02
      5.95524646e-02 2.75403429e-02 -5.17962463e-02 -6.67508990e-02
      -1.95281170e-02 -3.11606709e-04 -4.42262106e-02 3.06261275e-02
      5.52022681e-02 4.47945409e-02 1.40011655e-02 -2.14322824e-02
      -6.53753951e-02 -6.63873926e-02 -3.49075359e-04 5.84460981e-03
      6.42744405e-03 3.04332953e-02 5.94078638e-02 3.20550054e-02
      1.82516854e-02 -6.07806854e-02 -5.54240420e-02 0. -3.54918157e-04
      -8.69293173e-04 2.35904870e-03 3.93861756e-02 5.36798909e-02
      2.57945079e-02 -2.49856729e-02 -4.36184146e-02 3.92684560e-05
      3.82516009e-04 0. -3.41142622e-05 4.93210042e-03 5.89637011e-02
      1.11582791e-02 -6.32364601e-02 -6.81061596e-02 -5.50516706e-04
      2.09645112e-03 -8.42259469e-05 1.31684018e-03 2.66951583e-02
      5.21042794e-02 3.58540341e-02 -2.83374023e-02 -5.09754196e-02
      -1.37629162e-04 5.08191204e-03 -2.93742723e-05 3.69815592e-04
      3.35036963e-03 5.50146736e-02 -1.03462450e-02 -4.25239205e-02
      -2.40200404e-02 7.99635425e-03 9.27497540e-03 8.06737589e-05
      -2.39723922e-05 4.46193808e-05 1.52667693e-03 -3.51732038e-02
      -5.87812364e-02 -2.40200404e-02 5.99866286e-02 6.24488853e-02
      5.65520837e-04 1.99995065e-05 -5.42303678e-05 -1.13414712e-02
      4.24959809e-02 -1.40386624e-02 1.79032963e-02 1.05451392e-02
      4.75165667e-03 2.01684379e-05 6.20985375e-05 5.57001877e-05
      5.79932146e-03 1.24761080e-02 4.93064336e-02 6.19292445e-02
      3.97241749e-02 4.28987704e-02 8.06737153e-05 7.99980116e-05
      5.60304150e-04 -1.91176499e-04</_>
    <_>
      -3.54461335e-02 1.36782629e-02 1.36782629e-02 -1.94025021e-02
      7.34188687e-03 0. 5.69371696e-05 1.90274022e-05 -1.65176913e-02
      1.36782629e-02 3.09237000e-02 3.37284133e-02 -1.56860289e-04
      -1.11043255e-03 -4.08789747e-05 -1.19288694e-02 -4.92433012e-02
      -4.74603213e-02 -1.45255020e-02 2.43826322e-02 1.36782629e-02
      -1.85538945e-03 -1.63735803e-02 2.71860277e-04 0. 0.
      -2.64497306e-02 1.36782629e-02 4.32923660e-02 4.64575514e-02
      -2.28694994e-02 -3.01587041e-02 -2.31969692e-02 -6.32006004e-02
      -9.50343683e-02 -2.09141057e-02 8.21814612e-02 4.16847542e-02
      1.13422489e-02 0. -1.54924775e-02 -2.81623174e-02 -8.54474455e-02
      -9.92233306e-02 -9.56739392e-03 8.73833150e-02 4.94615361e-03
      8.58928252e-04 -5.28909150e-04 -7.72272572e-02 -8.94362628e-02
      -9.07574520e-02 -8.12390447e-03 1.17833152e-01 8.41615349e-02
      1.46170277e-02 6.63015712e-03 -5.45311777e-04 -8.75123367e-02
      -7.86229596e-02 -1.03705443e-01 -9.05395895e-02 8.60684663e-02
      1.32023066e-01 7.25506543e-05 2.00195049e-04 -3.29096317e-02
      -1.02870867e-01 -1.03705443e-01 -8.38197991e-02 2.35226080e-02
      1.30079672e-01 1.93982702e-02 -6.52818521e-03 -1.18293567e-02
      -5.02082473e-03 -1.45307928e-01 -2.78077852e-02 3.29577550e-02
      1.02938317e-01 1.00063808e-01 -5.28099723e-02 -2.62165517e-02
      -4.76280749e-02 -1.85457412e-02 -1.17105797e-01 -1.19535066e-02
      1.95720233e-02 8.49554613e-02 5.97635657e-03 4.34339195e-02
      -1.54697103e-03 -2.70276191e-03 -2.98292655e-02 -1.45151705e-01
      -8.37122425e-02 8.40575770e-02 8.07808265e-02 1.11693315e-01
      6.46075886e-03 -6.42571691e-03 -1.57104544e-02 -2.66706888e-02
      -4.55277674e-02 8.26186389e-02 5.86069301e-02 4.71198410e-02
      3.20700668e-02 4.52917954e-03 5.33648767e-02 2.31125690e-02
      2.21766066e-03 2.21766066e-03 -3.66451368e-02 -1.45067377e-02 0.
      -7.26039475e-03 5.46164922e-02 7.23328441e-02 4.33270819e-02
      -1.00882091e-02 -4.40613590e-02 -3.57719101e-02 -5.69954067e-02
      -3.44039425e-02 5.21433493e-03 -6.56431913e-03 5.88783575e-03
      7.75159663e-03 3.65180820e-02 2.21766066e-03 2.21766066e-03
      2.21766066e-03 -3.17665562e-02 -2.16451325e-02 -5.25077246e-02
      -9.06939432e-03 -6.05445169e-02 -2.25738995e-02 -9.19470447e-04
      -1.99807920e-02 1.27220275e-02 -2.24801898e-02 6.05165202e-04
      1.13042518e-01 2.72058174e-02 -2.55419360e-03 -2.90084090e-02
      -1.15327314e-01 -5.31052016e-02 -8.61681625e-02 -2.24342458e-02
      1.14402972e-01 1.22776382e-01 3.41400213e-04 -8.68947525e-03
      -9.70312804e-02 -1.09838597e-01 -8.50402489e-02 -1.39721548e-02
      5.59917688e-02 1.23529568e-01 7.95046166e-02 -9.33044590e-03
      -1.03387386e-01 -9.17387828e-02 -1.15413398e-01 -1.84058920e-02
      -3.87176126e-03 3.65049355e-02 8.43657777e-02 7.94871449e-02
      2.57013403e-02 4.44898894e-03 -1.15587920e-01 -1.06643058e-01
      -2.79688817e-02 -4.07640785e-02 -1.44672906e-02 8.32365900e-02
      1.67156439e-02 -5.14666084e-04 -2.41936222e-02 -5.86645231e-02
      -7.17821047e-02 -1.28559256e-02 9.54521522e-02 5.24816550e-02
      7.58434385e-02 1.59159896e-03 -8.06134020e-04 -6.29380345e-02
      -3.88306677e-02 7.80111412e-03 7.55634680e-02 1.15231879e-01
      3.07152923e-02 9.29929595e-03 -1.18510313e-02 -2.15129592e-02
      1.57313943e-02 -6.20342530e-02 -4.89188731e-02 6.81965053e-03
      -5.30302059e-03 -1.13817509e-02 -4.39356035e-03 -8.53578653e-03
      -6.66456902e-03 7.80111412e-03 -2.15684436e-02 7.80111412e-03
      2.24435348e-02 2.45578606e-02 1.96336489e-03 -4.11390653e-03
      -7.99107086e-03 -8.57855193e-05 -5.35456311e-05 -6.12287957e-04
      5.23205213e-02 1.69255752e-02 -7.46439584e-03 -2.19926033e-02
      -9.25438199e-03 -3.22368033e-02 -1.93026531e-02 -3.46933641e-02
      -1.48274507e-02 4.40511992e-03 2.35487870e-03 3.76419947e-02
      2.16765814e-02 -7.46439584e-03 -1.30401291e-02 -3.42914609e-05
      2.02121868e-04 -3.05579277e-04 2.52407007e-02 6.68872520e-02
      -7.46439584e-03 -7.46439584e-03 -3.27718817e-02 -3.17237712e-02
      -3.62085854e-03 4.56478592e-04 -1.22310565e-04 1.00170802e-02
      9.14749783e-03 2.05408651e-02 -7.46439584e-03 -7.46439584e-03
      3.97019647e-02 -2.63231937e-02 -7.59550780e-02 -5.36961257e-02
      -5.02227247e-02 -6.41472125e-03 3.77588649e-03 5.64873926e-02
      3.72187123e-02 5.12327300e-03 2.40472071e-02 -2.09303596e-03
      -4.29377779e-02 -1.12397440e-01 -2.46304478e-02 -3.89933437e-02
      -1.24097429e-02 6.78455830e-02 5.12327300e-03 -4.58614565e-02
      -5.89545956e-03 -1.80233532e-04 1.72769849e-03 -7.56954425e-04
      1.91327499e-03 1.83154959e-02 5.12327300e-03 5.12327300e-03
      -4.48912792e-02 -8.75820499e-03 -1.20155688e-04 7.41448579e-03
      -3.00966389e-03 -3.20597668e-04 5.66981779e-03 5.12327300e-03
      2.90936022e-03 -1.51225356e-02 1.25773586e-02 -1.60295479e-02
      -2.87121162e-02 -6.40567811e-03 -2.10362449e-02 -1.17022544e-02
      -1.17923832e-02 -1.54799838e-02 -2.65997332e-02 2.37219501e-03
      2.37219501e-03 2.53430884e-02 1.87880592e-04 3.42005878e-05
      1.14292343e-05 -9.71032958e-03 2.37219501e-03 -3.08551476e-03
      4.00035689e-03 1.41553339e-02 6.37657987e-03 -9.19132028e-04
      -2.10109632e-04 5.74288861e-05 -4.17490453e-02 -1.92890428e-02
      -1.29998177e-02 2.37219501e-03 2.70091631e-02 5.03355600e-02
      -3.81509162e-04 6.13498851e-05 9.32945230e-04 -7.93106575e-03</_>
    <_>
      6.24353886e-02 -4.19235928e-03 -4.46818955e-02 1.39713027e-02
      -2.81813624e-03 -1.32411150e-02 1.52319393e-04 1.30621325e-02
      -2.61105155e-03 3.03395875e-02 -6.30665710e-03 -4.54759831e-03
      1.35014683e-03 -2.81813624e-03 -6.41466305e-03 -9.89757536e-05
      1.94007736e-02 1.02663888e-02 1.82805732e-02 -2.56484980e-03
      -2.81813624e-03 -2.81813624e-03 -2.81813624e-03 -3.78980790e-03
      4.59025567e-03 3.30080418e-03 1.53341470e-02 7.49231922e-03
      -9.60461516e-03 -2.21277624e-02 3.18098962e-02 -2.81813624e-03
      -1.25050228e-05 3.03381262e-03 4.88165114e-03 1.23634357e-02
      -3.23420987e-02 -2.19146349e-02 -4.06086668e-02 -7.53934844e-04
      -3.94123010e-02 -2.84096389e-03 -2.56171159e-04 -1.23082614e-02
      -3.70583162e-02 -1.99288148e-02 4.21954468e-02 1.33183584e-01
      3.69428024e-02 -7.92011693e-02 -6.91081956e-03 -1.37935887e-04
      -2.53446195e-02 -3.92093323e-02 -2.16519646e-02 -1.32207125e-02
      1.91320255e-02 -2.21687835e-02 -1.14635065e-01 -2.17490550e-02
      -4.11189831e-04 -2.40862891e-02 -3.87597792e-02 -1.90211125e-02
      1.35931090e-01 9.02663916e-02 1.30475059e-01 -1.44071832e-01
      -5.05405366e-02 -1.59069872e-03 -3.78088355e-02 -5.29295541e-02
      2.23858040e-02 5.92492782e-02 1.14657730e-01 4.73077875e-03
      -3.90801243e-02 -4.53704819e-02 5.21501643e-04 5.64095704e-03
      -2.32131896e-03 5.45147387e-03 3.99346612e-02 1.00517347e-01
      -1.44837110e-03 -2.07981262e-02 -2.19172239e-02 -7.00374171e-02
      2.47262232e-02 -3.68881822e-02 5.40531427e-03 6.42354712e-02
      1.24015696e-01 6.72256649e-02 -8.24998021e-02 -6.72135204e-02
      -1.10721560e-02 -1.27997296e-03 -2.68753082e-03 2.76389066e-03
      1.35220271e-02 5.89551888e-02 8.76356363e-02 -2.07981262e-02
      -4.45595980e-02 -5.37864566e-02 3.26743396e-03 -9.49665159e-03
      -4.23079560e-04 -1.76330004e-03 4.80224611e-03 4.43754792e-02
      -9.67928115e-03 5.22317067e-02 -2.05668695e-02 2.10927636e-03
      3.93335987e-03 9.72793065e-03 3.39025371e-02 -2.50750948e-02
      -2.08715796e-02 -9.67928115e-03 4.30369973e-02 -1.08083934e-02
      6.38638670e-03 2.31873840e-02 -2.03362610e-02 -1.12194029e-04
      2.28756500e-04 1.91651732e-02 -9.67928115e-03 6.73846379e-02
      -9.67928115e-03 1.11376997e-02 1.29221880e-03 -1.36079825e-02
      8.67216140e-02 -7.19959736e-02 -5.57137206e-02 -2.26954184e-02
      5.95288314e-02 -6.20478205e-02 2.70144604e-02 -5.25917439e-03
      7.50838453e-03 7.01522902e-02 5.54838255e-02 -6.58992454e-02
      -1.03977703e-01 -1.62473023e-02 -1.42176468e-02 -7.70960236e-04
      7.85386376e-03 1.06101418e-02 8.46361592e-02 1.09227687e-01
      5.73520735e-02 -8.87840614e-02 -6.63545877e-02 -7.00268894e-02
      7.44314093e-05 7.74038583e-03 7.77298072e-03 1.16815314e-01
      1.53726740e-02 -6.35271594e-02 -1.07007675e-01 -2.13384461e-02
      -3.00455261e-02 5.42805437e-03 7.61082582e-03 -1.66360363e-02
      1.26842529e-01 9.84372273e-02 8.40766504e-02 -6.77071661e-02
      -1.01066254e-01 -1.20635256e-01 -5.35603911e-02 -2.13741027e-02
      1.96301192e-02 4.17948663e-02 9.05175731e-02 1.50361117e-02
      -7.93255717e-02 -1.87516008e-02 -2.15715654e-02 9.30196885e-03
      2.79463250e-02 9.33822524e-03 3.90176522e-03 -6.26717880e-03
      3.26530673e-02 1.02682048e-02 4.25772406e-02 -1.25210106e-04
      6.45772135e-03 1.77658293e-02 -1.60156842e-02 3.88154238e-02
      4.84068692e-02 1.17697166e-02 6.19114675e-02 9.08659585e-03
      -8.67102295e-02 -4.85765897e-02 -1.83823321e-03 -4.90651187e-03
      -2.09165365e-02 -1.33371338e-01 -5.96572496e-02 1.02682048e-02
      7.11960718e-02 9.58807580e-03 -2.66527827e-03 8.06076452e-03
      -1.40849240e-02 -3.06786009e-04 -1.06464147e-04 -1.23449403e-03
      1.26937330e-02 3.74976173e-02 1.26937330e-02 -5.35216415e-03
      -3.86103115e-04 -1.48402462e-02 1.07300039e-02 -4.20210473e-02
      -1.15445293e-02 6.67190179e-03 2.33892482e-02 -2.38782838e-02
      8.83333012e-03 9.46377218e-03 2.39157882e-02 -1.22204218e-02
      -2.29712488e-04 -1.27393898e-04 3.27834971e-02 2.44520716e-02
      1.26937330e-02 -5.99721707e-02 4.47805673e-02 1.26937330e-02
      -8.05508122e-02 -1.35930097e-02 1.82544172e-03 -2.96926033e-03
      1.67646017e-02 4.53246385e-03 -7.50056580e-02 1.26937330e-02
      -1.78516433e-02 4.55822274e-02 3.07187047e-02 -1.85638049e-03
      -2.04188339e-02 -2.11958028e-02 -4.02294360e-02 -6.07114751e-03
      -3.26919369e-02 -6.00784346e-02 8.49585459e-02 9.52717885e-02
      9.61886272e-02 2.13639252e-02 -6.11617751e-02 -1.05395995e-01
      -5.96593246e-02 -7.99131766e-02 6.48115650e-02 -4.28551473e-02
      2.65042670e-02 4.20040498e-03 -3.07327230e-02 -4.33744006e-02
      -8.79952908e-02 -2.37948839e-02 3.81418839e-02 -6.68532029e-02
      1.67625342e-02 9.15857479e-02 1.44470176e-02 5.98878320e-03
      -7.35472217e-02 -1.07039139e-01 -7.56613910e-02 -1.00799426e-01
      -5.48591316e-02 4.05709539e-03 1.13318069e-02 1.79472789e-02
      1.42723709e-01 -1.61868767e-04 -6.11536875e-02 -5.27162701e-02
      -5.68417870e-02 -2.05269214e-02 -4.40393873e-02 -1.09564699e-01
      -7.24466369e-02 5.47940955e-02 4.43799272e-02 2.50710826e-03
      -9.19034053e-03 -1.94217879e-02 -1.01462036e-01 -3.26548778e-02
      -5.89537807e-02 -5.17390762e-03 1.48987457e-01 -3.60191637e-03
      -6.53865561e-02 -2.29521003e-02 -6.69973344e-02 -4.52272370e-02
      -6.47175610e-02 -7.28551745e-02 4.09170277e-02 6.39158636e-02
      1.79835092e-02 5.52155152e-02 1.12290988e-02 6.50913548e-03</_>
    <_>
      5.87725379e-02 1.51460227e-02 5.63839823e-02 5.09724468e-02
      9.20920223e-02 3.03908158e-03 -9.41737526e-05 9.53837484e-03
      4.10591625e-02 2.63869669e-02 -7.72646144e-02 -8.44434872e-02
      1.80982593e-02 9.17542726e-02 4.86448454e-03 -1.88934995e-04
      1.42305857e-02 3.29280794e-02 1.93347150e-05 -1.11209020e-01
      -2.80397404e-02 9.16444287e-02 8.12891945e-02 9.58827045e-03
      2.90909992e-03 2.23704264e-03 1.67289432e-02 -2.30150074e-02
      -1.17667787e-01 -6.10647798e-02 8.69982466e-02 9.18650180e-02
      8.09778273e-03 2.03952636e-03 3.38782580e-03 3.64592532e-03
      -8.57898965e-03 -8.85996819e-02 -8.21811557e-02 7.72794709e-03
      3.58211584e-02 1.30996096e-03 -4.04211569e-05 3.40146874e-03
      1.87345850e-03 -2.61837263e-02 -4.67722826e-02 3.37087587e-02
      3.11537106e-02 1.06048526e-03 -1.86895952e-03 -6.79228641e-03
      -1.33952890e-02 -1.44797266e-02 -1.49496635e-02 -7.41310045e-02
      1.29007334e-02 4.43354286e-02 5.43236732e-02 8.72635981e-04
      -2.29022444e-05 8.23239679e-04 -5.29360538e-03 -2.24603545e-02
      2.76058614e-02 3.37087587e-02 1.21453859e-01 -5.58338426e-02
      -5.21483831e-02 -6.58360877e-05 -4.14066389e-02 -2.65232679e-02
      -3.24823218e-03 -6.29213406e-03 5.88862151e-02 1.71693973e-02
      -8.91147777e-02 -8.97898339e-03 -2.35743690e-02 -1.32683013e-02
      -2.35187430e-02 3.36842947e-02 2.93722078e-02 8.78325999e-02
      2.08359957e-02 -3.27526890e-02 7.25565627e-02 8.58689658e-03
      2.73782946e-02 2.87976768e-02 -1.03822183e-02 8.56320839e-03
      7.63953105e-02 5.17275371e-02 -7.81346783e-02 -6.41331673e-02
      1.78474362e-03 -3.79317552e-02 -1.79444905e-02 2.63370248e-03
      9.92589630e-03 4.67785075e-02 7.12253228e-02 -3.27526890e-02
      6.75936565e-02 8.21245182e-03 5.81902778e-03 2.24275235e-03
      -5.04684914e-03 -9.18679163e-02 -5.57485633e-02 6.52974173e-02
      5.61746815e-03 5.45732267e-02 2.48879828e-02 7.43478816e-03
      3.82099301e-03 -3.09604104e-03 -6.13320842e-02 -5.93267307e-02
      3.58387865e-02 4.15043384e-02 4.13753912e-02 1.51486713e-02
      3.92012298e-03 1.25020361e-02 9.64420475e-03 -2.41868254e-02
      -3.21947485e-02 -3.74905113e-03 -1.14915436e-02 7.64075443e-02
      8.02865401e-02 3.28097232e-02 2.44568605e-02 1.33977197e-02
      4.60055135e-02 -6.10733591e-02 -8.75787809e-03 -5.60036935e-02
      5.22084944e-02 8.88978539e-04 1.73802078e-02 1.60804726e-02
      -1.77914388e-02 -2.48402357e-02 1.59295630e-02 1.29851075e-02
      6.76192855e-03 1.87347294e-03 -3.31620011e-03 -3.28937895e-03
      -1.25446282e-02 -1.85534731e-02 -6.82832487e-03 1.59295630e-02
      4.00550850e-02 -5.42553812e-02 -4.23636436e-02 9.99531709e-04
      -1.05294567e-02 -1.43032921e-02 -3.80371995e-02 7.66295716e-02
      2.20302939e-02 1.03984158e-02 -1.67832263e-02 2.93798558e-03
      -1.69700682e-02 -1.14768241e-02 -3.83502282e-02 -7.36686513e-02
      6.85689449e-02 4.89816926e-02 4.44199629e-02 -3.87531854e-02
      4.32009855e-03 3.63937020e-03 3.38969240e-03 -7.23636076e-02
      8.21492262e-03 1.61938313e-02 5.84222376e-02 3.77129926e-03
      -4.25209403e-02 -6.30685762e-02 -1.12581970e-02 -8.87052715e-03
      1.43176150e-02 1.67312869e-03 6.06757728e-03 4.67960024e-03
      4.66526076e-02 2.33758800e-02 1.67355072e-02 -1.85150225e-02
      -1.25666205e-02 -3.25469091e-03 -4.14889865e-02 3.08466312e-02
      8.77072811e-02 3.60367238e-03 2.33758800e-02 -3.66774760e-03
      -2.46854611e-02 -1.46459928e-02 -2.25342382e-02 -4.26582992e-02
      8.19697604e-03 9.79678426e-03 3.71413082e-02 2.33758800e-02
      1.33355465e-02 -7.87466541e-02 -8.50678161e-02 -7.54137039e-02
      -3.04071978e-02 1.95648208e-05 5.85451962e-05 -4.05665906e-03
      -1.11813135e-02 6.54192045e-02 6.21933900e-02 1.70430988e-02
      -2.29214430e-02 -3.22505347e-02 3.42676453e-02 2.14142557e-02
      1.17453246e-03 -3.52009460e-02 1.94976404e-02 7.93196540e-03
      8.75123963e-03 -1.46993017e-02 -5.95287867e-02 -3.16217338e-04
      -1.03185332e-04 -7.19941687e-04 -3.84133682e-02 4.69964296e-02
      5.07782064e-02 1.37565322e-02 -1.11813135e-02 -1.11813135e-02
      1.65047534e-02 6.57354891e-02 5.35129569e-03 -2.52942462e-03
      1.40629439e-02 4.82979752e-02 1.04345987e-02 -1.11813135e-02
      -5.53146228e-02 6.94450289e-02 9.34667289e-02 1.41918371e-02
      -4.28008055e-03 4.99737158e-04 -6.56056823e-03 -3.91955907e-03
      -5.91737032e-02 -8.77778456e-02 7.11079687e-02 8.54077563e-02
      6.79145083e-02 2.63812765e-02 3.91817372e-03 -1.36303566e-02
      -2.45388458e-03 -8.79707262e-02 8.80111940e-03 4.74191159e-02
      9.84334275e-02 9.26798116e-03 2.41623726e-03 0. 0. 4.13018315e-05
      -2.36610752e-02 -8.05433542e-02 3.67659293e-02 8.97032693e-02
      3.55231971e-03 -3.91340405e-02 -1.18564265e-02 -8.20833594e-02
      -2.13650409e-02 -8.63572210e-02 -6.24285378e-02 9.24097281e-03
      5.31678386e-02 2.06499062e-02 8.79716799e-02 8.60496797e-03
      -1.62074752e-02 -8.80437903e-03 -5.53037301e-02 -7.03980401e-02
      -2.98991296e-02 -2.04280075e-02 5.73247625e-03 5.31774312e-02
      1.63184106e-02 -3.53567153e-02 -4.00385447e-02 -6.32501841e-02
      -5.92933446e-02 -1.58323236e-02 -3.82146388e-02 -4.38374653e-02
      5.31774312e-02 -1.24459071e-02 -4.31857407e-02 -1.64712146e-02
      -4.95526716e-02 -4.63799573e-02 -4.32035141e-02 -4.07094508e-02
      1.51532944e-02 5.31774312e-02 8.41356348e-04 3.23762484e-02
      4.81546903e-03 -3.53353024e-02</_>
    <_>
      -1.46556627e-02 1.09335789e-02 2.02568844e-02 2.60999706e-02
      4.10359260e-03 1.93707645e-03 1.23461359e-04 7.32896663e-03
      -1.38287162e-02 -4.08859327e-02 2.74596992e-03 2.10865345e-02
      1.37823354e-02 5.98292910e-02 3.60902143e-03 0. 8.04857910e-03
      -3.73864807e-02 -1.32763118e-03 -2.00486127e-02 2.78815720e-02
      3.78563628e-02 4.10359260e-03 6.28024619e-03 2.57104379e-03
      1.84881024e-03 2.59859767e-03 -4.57294844e-02 -6.39937371e-02
      4.46968107e-03 6.07059933e-02 4.10359260e-03 -2.25490518e-02
      7.00635253e-04 -4.04716432e-02 -4.11025733e-02 -6.69009313e-02
      2.29382676e-05 4.91083134e-03 5.88504970e-03 -1.97149385e-02
      -1.33648599e-02 -2.18861885e-02 -1.18352566e-02 -8.20538402e-02
      6.49215421e-04 3.18283662e-02 9.31642726e-02 2.39812303e-02
      -5.90899587e-02 -2.13563312e-02 -3.28322276e-02 -1.27946744e-02
      -3.10905911e-02 -2.84315348e-02 -7.09523214e-03 7.13592395e-02
      3.47079933e-02 -4.39691357e-02 -4.72997017e-02 -6.23234874e-03
      -3.49823572e-02 -3.12908180e-02 1.92530977e-03 8.85167420e-02
      9.31642726e-02 9.31642726e-02 -6.04569390e-02 -2.23790240e-02
      -8.14796239e-03 -3.00620543e-03 -1.81287900e-03 2.10622568e-02
      2.69780066e-02 6.94733709e-02 6.16029883e-03 -6.83349222e-02
      -3.06578609e-03 1.04340841e-03 3.68926977e-03 1.24020884e-02
      1.92484334e-02 -2.05012760e-03 5.94415218e-02 -1.38779255e-02
      -2.54135989e-02 1.70372624e-03 -6.80416077e-03 -2.10438692e-03
      2.23009139e-02 4.04685829e-03 3.60149741e-02 7.13347420e-02
      3.71518806e-02 -5.99732660e-02 -2.21576937e-03 3.57622339e-04
      9.85318911e-04 2.83487211e-03 2.03330000e-03 7.50780758e-03
      3.56679149e-02 4.11117673e-02 -2.54135989e-02 1.62100568e-02
      -2.08631326e-02 4.43135388e-03 1.74925698e-03 -1.30332902e-03
      -1.57705732e-02 -1.31401960e-02 2.20856573e-02 -3.34336422e-02
      4.13099080e-02 1.90385450e-02 5.71236713e-03 9.75544506e-04
      -2.05669552e-03 -1.63171049e-02 -1.17377806e-02 2.72915140e-02
      -3.34336422e-02 3.72256874e-03 1.73966549e-02 -1.59290638e-02
      4.83723590e-03 8.92314501e-03 -2.00294307e-04 -1.27747571e-02
      -1.92520767e-02 -3.34336422e-02 6.08560890e-02 6.12130798e-02
      2.50048134e-02 1.93777177e-02 5.82931563e-02 6.08509220e-02
      1.59056839e-02 -1.05710374e-02 -6.73309043e-02 1.61143187e-02
      -9.92393005e-04 3.64250764e-02 6.06442392e-02 1.98300063e-06
      3.35891210e-02 6.92091435e-02 1.25243980e-02 -6.61412254e-02
      -3.40452008e-02 -2.09250418e-03 -1.53475488e-02 1.06876576e-03
      5.61324880e-03 4.84885313e-02 7.40196332e-02 4.55630869e-02
      -5.76311275e-02 -2.51899045e-02 -1.13706784e-02 9.23539454e-04
      5.61745232e-03 3.27490680e-02 7.40112290e-02 7.32472166e-02
      9.93177388e-03 -7.47364685e-02 -5.52517623e-02 -5.90356104e-02
      4.45951195e-03 3.25553045e-02 -4.82314639e-03 7.35580772e-02
      6.50294125e-02 5.73056564e-02 -4.58257683e-02 -6.16711006e-02
      -7.54712671e-02 -1.38943186e-02 -2.61419155e-02 1.08538745e-02
      2.37903502e-02 4.97352108e-02 1.14462199e-02 -4.38489690e-02
      -2.69237394e-03 -2.11033737e-03 5.11953281e-03 1.57117937e-02
      5.15794242e-03 2.54121423e-03 -7.83624500e-03 2.12487169e-02
      6.33331807e-03 3.05350181e-02 -8.70054762e-04 3.61702824e-03
      9.92047880e-03 -1.83128286e-02 3.02563589e-02 6.33331807e-03
      1.68891754e-02 1.80577654e-02 6.71636034e-03 -3.86744253e-02
      -2.69564218e-03 -2.49997303e-02 -9.25239734e-03 -7.79905822e-03
      -7.41224363e-02 -7.69791054e-03 6.33331807e-03 4.00315374e-02
      5.37036825e-03 5.41411946e-03 2.95041944e-03 -2.26668967e-03
      -8.95199552e-03 -1.92478076e-02 -7.47828037e-02 -1.01083368e-02
      3.95108238e-02 6.20310530e-02 1.72718819e-02 1.77137889e-02
      4.61348929e-02 2.41151713e-02 1.13485297e-02 -4.80873324e-02
      -6.38215691e-02 -1.61488801e-02 -2.69573592e-02 1.70815345e-02
      6.21098764e-02 -3.37446742e-02 -1.35770440e-02 -3.04226074e-02
      -5.95076010e-02 -4.18608934e-02 1.34911379e-02 5.37166707e-02
      4.93043894e-03 4.30359691e-02 4.94560413e-02 9.13250819e-03
      3.21949311e-02 -3.58597785e-02 -6.43834025e-02 -8.43551382e-03
      2.78351493e-02 1.13323545e-02 5.90837114e-02 2.56953035e-02
      5.30369990e-02 7.49598294e-02 1.05550671e-02 -5.53012714e-02
      -5.62034138e-02 -5.60164154e-02 1.37952238e-03 2.27565020e-02
      -1.89313404e-02 6.01117648e-02 6.75851777e-02 5.66359162e-02
      -1.73403379e-02 -5.21802492e-02 -5.55026755e-02 -1.39002819e-02
      -5.13274334e-02 7.08726197e-02 3.61048281e-02 7.49413744e-02
      6.35481486e-03 -5.47345653e-02 -5.65839782e-02 -4.93656620e-02
      -3.29805501e-02 4.20081243e-02 -2.91571226e-02 3.10549829e-02
      7.49598294e-02 9.10706259e-03 -5.99455601e-03 -5.45454696e-02
      -4.42377813e-02 -5.65301888e-02 -5.40899076e-02 -4.15118337e-02
      1.00588314e-02 -1.12095603e-03 1.74624231e-02 7.81329870e-02
      3.34887533e-03 -2.75346637e-02 -7.95993023e-03 -5.55991754e-02
      -2.07795314e-02 -1.22960592e-02 -5.96517287e-02 -3.88615690e-02
      3.24071199e-02 2.50544269e-02 1.40397064e-03 6.60151185e-04
      -9.56009142e-03 -5.51133566e-02 -1.19445641e-02 -1.32580046e-02
      1.08497421e-04 8.71830359e-02 1.56251143e-03 1.71203613e-02
      -3.05666532e-02 -5.44574410e-02 -2.47548688e-02 -3.12369335e-02
      -3.90903912e-02 -6.23411080e-03 4.27383706e-02 9.52718779e-03
      3.07432190e-02 6.22820016e-03 -7.45127443e-03</_>
    <_>
      2.99005955e-02 -3.64991017e-02 -1.79847777e-02 3.07110958e-02
      7.29354173e-02 2.21119449e-03 7.95396190e-05 7.72035308e-03
      2.85469498e-02 -4.07262929e-02 -6.33478910e-02 -3.46358158e-02
      1.37193464e-02 7.42248148e-02 3.91085073e-03 -7.62013296e-05
      1.14661157e-02 -2.09607626e-03 -8.92585516e-03 -3.95985469e-02
      6.77000964e-03 1.76326055e-02 3.74184288e-02 7.63633056e-03
      2.63809855e-03 1.92635914e-03 1.35680679e-02 -6.18316419e-02
      -6.52873442e-02 -1.97807979e-02 5.66378720e-02 4.27535884e-02
      -1.26176728e-02 -7.27369823e-03 2.85105617e-03 -4.32648286e-02
      -6.35264963e-02 -5.39859571e-02 -3.15055926e-03 6.21295953e-03
      2.87366323e-02 1.05315598e-03 -1.20822233e-05 2.74146674e-03
      -5.42908534e-02 -5.25752939e-02 2.78653726e-02 9.83253792e-02
      2.53174417e-02 2.75708232e-02 0. 1.94217610e-05 -2.24920548e-02
      -5.25159463e-02 -6.19539246e-02 -8.18175450e-03 2.62844898e-02
      1.76424216e-02 -2.05368847e-02 -3.33718546e-02 -1.56805944e-02
      6.80319499e-04 -4.56871502e-02 -6.04574755e-02 5.86028099e-02
      3.40452865e-02 6.64541647e-02 -2.55920682e-02 -8.62228777e-03
      -1.47478096e-02 -4.37965710e-03 -6.20706677e-02 -2.45187003e-02
      3.50313783e-02 7.52601177e-02 1.46998074e-02 2.98849884e-02
      6.83310354e-05 -1.52397063e-02 -5.45251295e-02 -4.76691984e-02
      1.37670226e-02 2.35590562e-02 7.04814568e-02 1.73777342e-02
      6.12734854e-02 4.23051305e-02 -4.09324169e-02 -3.83804440e-02
      -1.85163636e-02 -5.96679524e-02 2.35438831e-02 5.90836555e-02
      3.67923826e-02 2.73996666e-02 -6.52206782e-03 -6.24792203e-02
      -2.59555783e-02 -6.09474666e-02 -1.46034844e-02 7.91567285e-03
      3.75443101e-02 5.78650795e-02 1.13096246e-02 -2.74095871e-03
      -5.73973395e-02 -4.86853793e-02 -3.38949487e-02 -8.26308224e-03
      -1.71955638e-02 -4.54056039e-02 -1.14226702e-03 -9.82473698e-03
      4.41401713e-02 2.00908203e-02 6.02780236e-03 3.11270775e-03
      -2.54072025e-02 -8.97418614e-03 -4.82823066e-02 -7.24249939e-03
      -9.82473698e-03 2.03016363e-02 1.40072973e-02 9.60938632e-03
      -2.29570456e-03 8.86193477e-03 -4.18114103e-03 -4.28496450e-02
      -4.07967120e-02 -9.82473698e-03 4.92659286e-02 6.21469207e-02
      2.63980590e-02 2.05964576e-02 5.93520030e-02 5.85603192e-02
      -6.72523212e-03 -4.26668227e-02 -4.56107184e-02 1.73323750e-02
      1.88489165e-02 3.84546481e-02 6.46238178e-02 -1.22917723e-02
      3.54217701e-02 2.28794180e-02 -3.67360972e-02 -5.68465218e-02
      -2.19543707e-02 -1.17840832e-02 1.46824040e-03 -7.63602974e-03
      -2.89622340e-02 3.33258100e-02 8.56363308e-03 3.42543190e-03
      -4.78622466e-02 -5.71131427e-03 -1.46198217e-02 -2.37514629e-04
      -1.26315579e-02 3.36484164e-02 7.70440176e-02 5.86480461e-02
      -3.46144885e-02 -6.59206882e-02 -4.03340347e-02 -6.66003525e-02
      2.80619413e-03 3.44049037e-02 -8.99019744e-03 7.54586235e-02
      5.14465012e-02 3.97608839e-02 -3.53991017e-02 -1.40254684e-02
      -6.66964278e-02 -2.56695114e-02 -8.41863453e-03 -2.38493346e-02
      1.59773082e-02 4.19103615e-02 3.14990710e-03 -6.37433818e-03
      -1.08447969e-02 -5.57674095e-02 -1.30101526e-02 -1.36746885e-02
      -1.32739486e-03 4.90135793e-03 3.87385767e-03 2.33520716e-02
      2.26367097e-02 -3.01696640e-02 -6.83591440e-02 -1.75176468e-02
      -1.02208741e-03 -1.43520990e-02 1.96885429e-02 3.38674188e-02
      -1.65177637e-03 3.41206901e-02 1.78195182e-02 -3.26607227e-02
      -1.10507878e-02 -4.37483331e-03 -2.17348337e-03 -1.57183316e-02
      -6.23019636e-02 -2.80812569e-02 2.26367097e-02 1.69068780e-02
      -1.12466549e-03 2.02248222e-03 5.78415301e-03 -1.03965227e-04
      3.48080648e-05 -4.43318812e-03 -2.46992316e-02 -3.61765595e-03
      -1.05293794e-02 4.42612991e-02 1.83658339e-02 1.79793816e-02
      4.92923595e-02 2.78302468e-02 2.21942123e-02 -1.05256690e-02
      -6.03237413e-02 -5.17515801e-02 -1.82860717e-02 1.70673244e-02
      6.54048473e-02 -3.30714360e-02 -1.04841520e-05 -3.13725795e-05
      -3.28191742e-02 -3.71394381e-02 -2.78874449e-02 2.86362469e-02
      5.58829866e-03 3.84922102e-02 5.23736365e-02 1.32760899e-02
      5.28694317e-02 -1.30078401e-02 -6.87301382e-02 -4.26236279e-02
      2.04719487e-03 8.08552001e-03 6.03742190e-02 2.68765483e-02
      5.59921749e-02 7.91365281e-02 6.46851445e-03 -6.38762861e-02
      -6.48286939e-02 -6.46312758e-02 -5.54080587e-03 2.39520762e-02
      -3.66969965e-02 5.94975837e-02 7.28630871e-02 5.83503768e-02
      2.47599324e-03 -3.06840148e-02 -6.40889108e-02 -4.83263396e-02
      -3.62159126e-02 7.78316185e-02 3.81230675e-02 7.91365281e-02
      7.45108537e-03 -4.05711718e-02 -6.52304664e-02 -6.52304664e-02
      -2.13725884e-02 2.98134424e-02 -5.33852503e-02 2.95336321e-02
      7.77983442e-02 9.94967576e-03 2.84613967e-02 -4.21489216e-02
      -6.50605336e-02 -4.38874476e-02 -6.25974238e-02 -4.61688079e-02
      -9.08762123e-03 -2.30354932e-03 1.01428907e-02 8.76508355e-02
      9.88583080e-03 -2.88173333e-02 -2.30360366e-02 -4.50935662e-02
      -1.30822631e-02 -3.43944132e-02 -6.89579025e-02 -4.70093377e-02
      4.49074395e-02 2.67056916e-02 1.45136775e-03 6.53194147e-04
      -1.27951223e-02 -6.41666576e-02 -1.03100287e-02 -4.14271913e-02
      -1.74406846e-03 9.51749086e-02 3.03227222e-03 1.27455695e-02
      -1.00871697e-02 -6.34742007e-02 -2.58921050e-02 -1.73426867e-02
      -4.72509116e-02 -2.47631758e-03 8.39798898e-02 1.02699529e-02
      3.27724963e-02 6.65863883e-03 -5.87417092e-03</_>
    <_>
      5.42624593e-02 7.68581813e-04 5.41818775e-02 2.31625810e-02
      -3.96941081e-02 -7.07382262e-02 -2.78462209e-02 -6.54873392e-03
      1.41307348e-02 3.39592062e-02 5.84270479e-03 4.02468219e-02
      2.00251844e-02 -3.69082540e-02 -3.72437537e-02 -1.63758006e-02
      1.16549954e-02 3.41529138e-02 1.53368004e-02 1.03671560e-02
      1.03362367e-01 4.81208004e-02 -3.96941081e-02 -4.32157367e-02
      2.38951901e-03 2.71458831e-03 2.12528296e-02 5.54588996e-03
      2.42994679e-03 6.63568079e-02 7.02758282e-02 -3.96941081e-02
      -2.44765803e-02 2.15964927e-03 4.01836121e-03 1.61686447e-02
      1.04487583e-03 3.36800113e-05 7.18156248e-03 8.58172122e-03
      -1.00156590e-02 1.46472454e-03 0. 3.81843490e-03 4.91525885e-03
      1.14660682e-02 3.33324298e-02 1.36792108e-01 3.47609520e-02
      3.52640599e-02 0. 2.70116961e-05 9.02685770e-06 1.54880714e-02
      -3.99305560e-02 -4.94901054e-02 5.37669398e-02 5.09792976e-02
      -2.81389635e-02 1.05141627e-03 0. 9.54608666e-04 -6.78675622e-03
      -1.44885927e-01 -2.02758349e-02 -1.34519171e-02 1.34990379e-01
      2.95805857e-02 0. 1.08046748e-04 3.61074199e-05 -1.11130804e-01
      1.94023810e-02 1.72377694e-02 8.55385289e-02 2.02595908e-02
      4.06322256e-02 9.50344911e-05 7.58784218e-03 6.43224921e-03
      2.09824350e-02 -2.02988144e-02 -7.16067925e-02 4.92303744e-02
      2.41226647e-02 9.50088799e-02 8.25822204e-02 3.09541915e-03
      3.55350412e-02 3.99785815e-03 -9.16525498e-02 -5.15687391e-02
      2.90893542e-04 5.92689738e-02 5.12424074e-02 3.16593476e-04
      1.97503413e-03 1.63415319e-03 -1.85092967e-02 -1.00641087e-01
      -9.33285952e-02 -5.20783216e-02 5.17649055e-02 2.90893542e-04
      6.30509779e-02 -4.15583067e-02 6.35983841e-03 -2.61154100e-02
      4.11300018e-04 -2.91169807e-03 4.03927974e-02 4.38176207e-02
      -3.17408554e-02 4.17766683e-02 1.70619544e-02 8.38740729e-03
      4.63664532e-03 -3.55996261e-03 -2.34399829e-02 1.92698352e-02
      2.31634248e-02 -3.17408554e-02 3.10114436e-02 1.78978238e-02
      1.33706415e-02 2.31523626e-02 -1.42089939e-02 -2.43228115e-02
      -3.69674969e-03 5.01647498e-03 -3.17408554e-02 2.17095837e-02
      4.02205363e-02 3.67143005e-02 9.93332174e-03 -1.96286663e-03
      -3.17408554e-02 -3.82935293e-02 -3.50097637e-03 -2.95883939e-02
      8.05470627e-04 6.11942087e-04 5.34649268e-02 4.47179936e-02
      -2.95455195e-02 -4.39703017e-02 4.61586080e-02 1.84350386e-02
      4.72426927e-03 1.33462914e-03 1.59510504e-03 2.04289332e-03
      5.67769771e-03 -5.84634691e-02 -3.59097682e-02 1.61619345e-03
      6.68734238e-02 2.96974815e-02 2.89702602e-03 9.68796900e-04
      2.65869312e-03 -1.16594704e-02 -2.95914188e-02 1.61619345e-03
      1.00553073e-02 1.48096401e-02 8.12202052e-05 -6.15376048e-04
      2.03131977e-03 8.07479955e-03 2.58963518e-02 -6.53720126e-02
      1.61619345e-03 1.61619345e-03 8.45654383e-02 4.67423238e-02
      1.36647001e-02 3.70872277e-03 3.93371703e-03 1.82283169e-03
      -4.89336960e-02 -6.50223047e-02 -2.02553105e-02 2.71972474e-02
      5.46689481e-02 8.40863120e-03 2.83490866e-03 7.93021638e-03
      6.45134319e-03 -3.38157192e-02 -9.50129852e-02 -9.64464918e-02
      1.43723900e-03 7.32669681e-02 5.07614091e-02 -4.11460456e-03
      5.21157542e-03 7.21154595e-03 -3.89957167e-02 -4.72420827e-02
      2.73482762e-02 4.18586954e-02 1.28581867e-01 4.00460400e-02
      1.14725586e-02 1.18915495e-02 1.40996873e-02 -3.74499634e-02
      -9.26518291e-02 -9.07840431e-02 2.43807528e-02 1.25609979e-01
      5.98545037e-02 7.83406198e-03 7.82459509e-03 7.12258450e-04
      -1.50088528e-02 -1.47826476e-02 -5.36644692e-03 -1.15627982e-03
      -4.72572865e-03 5.17184362e-02 7.46618435e-02 3.23973559e-02
      4.27999953e-03 -1.94078181e-02 -6.11683875e-02 -3.20672318e-02
      3.73422471e-03 8.91533773e-03 -2.50642560e-03 1.32279275e-02
      2.50665657e-02 4.33446504e-02 -4.20251042e-02 -9.98745710e-02
      -2.94488855e-02 -4.65836376e-04 -5.13476692e-02 1.69912297e-02
      8.86314511e-02 1.33118248e-02 6.92534968e-02 -4.72572865e-03
      -8.14102441e-02 -2.63440013e-02 5.46166766e-03 3.77368159e-03
      1.75380018e-02 6.35425001e-02 1.64387599e-02 5.40274605e-02
      -3.81079800e-02 -2.45318953e-02 2.71107219e-02 1.62970573e-02
      1.30358688e-03 -7.53206259e-04 2.22182091e-04 2.91982596e-03
      1.05403960e-02 -6.31303936e-02 -1.33030796e-02 7.65716378e-03
      8.34960490e-02 5.19716442e-02 6.46594772e-03 1.45684823e-03
      6.66984706e-04 -1.37597844e-02 2.29783487e-02 -4.93841656e-02
      7.65716378e-03 9.53994039e-03 1.90629205e-03 -1.75652269e-04
      -8.58735002e-05 -1.16969255e-04 4.78931591e-02 -4.00026999e-02
      -5.66917136e-02 1.36364754e-02 1.36322156e-02 5.56107871e-02
      1.00575224e-03 2.14866595e-04 7.89792030e-05 -1.78592484e-02
      -1.02098919e-01 -1.10249646e-01 -5.22768945e-02 3.33945267e-02
      1.36907205e-01 1.61831900e-02 3.29150911e-03 1.52056094e-03
      -1.86538361e-02 -6.11897148e-02 -1.29250705e-01 -1.27378970e-01
      2.87327450e-02 1.37056753e-01 3.73359695e-02 2.17550644e-03
      9.16350400e-04 -1.59605239e-02 -2.12772209e-02 -9.95627493e-02
      -4.23758924e-02 5.93848387e-03 1.37157813e-01 6.96346210e-03
      3.04594096e-02 6.21888181e-03 -2.66888877e-03 1.81985460e-02
      2.30799522e-02 3.13008800e-02 8.14707875e-02 1.37318417e-01
      1.49273975e-02 4.55798395e-02 9.29180719e-03 1.98724940e-02</_>
    <_>
      2.53372826e-03 -5.70361428e-02 -1.34976134e-02 1.60740614e-02
      8.67245495e-02 3.24241910e-03 1.72970424e-04 1.02679450e-02
      2.39848532e-02 -4.36770953e-02 -5.93122579e-02 1.19278980e-02
      1.75577141e-02 9.63489264e-02 5.15585672e-03 -9.95040406e-03
      -2.58259606e-02 -3.87743339e-02 -3.74116711e-02 -5.56328520e-02
      1.93536133e-02 1.93536133e-02 1.93536133e-02 1.01470584e-02
      3.60205420e-03 2.59019900e-03 -9.29879490e-03 -7.16852844e-02
      -5.15687726e-02 3.30647081e-02 6.58704713e-02 6.93825334e-02
      -1.02722049e-02 -5.03272526e-02 -7.54381940e-02 -6.32805303e-02
      -4.17785645e-02 -5.18344343e-03 6.72162231e-03 8.24500527e-03
      2.51768157e-02 -2.20938437e-02 -7.12755397e-02 -8.20446238e-02
      -7.46743232e-02 1.18459696e-02 4.46581095e-02 1.30523935e-01
      3.31567191e-02 -2.76442431e-02 -7.46027902e-02 -8.64795819e-02
      -6.23908080e-02 2.57182890e-03 -4.07539830e-02 1.15003577e-02
      1.08290732e-01 4.80293706e-02 -1.51611259e-02 -6.45796955e-02
      -8.65053609e-02 -7.46122599e-02 -3.81953754e-02 3.86933936e-03
      1.24012709e-01 1.30523935e-01 1.02966502e-01 -5.15150987e-02
      -8.65053609e-02 -8.64022598e-02 -1.55855836e-02 1.07457185e-04
      2.31271833e-02 4.10429426e-02 8.99775997e-02 1.53195150e-02
      -8.27223659e-02 -2.51281373e-02 -2.19373666e-02 -6.32158772e-04
      2.10078936e-02 -1.18700461e-02 9.41511989e-03 5.38192354e-02
      7.59155909e-03 -3.12045701e-02 4.31500003e-02 -4.62305360e-02
      1.16953524e-02 2.20156088e-02 5.74867800e-03 4.90879379e-02
      9.74498391e-02 3.23766507e-02 -7.96229616e-02 -7.61628076e-02
      -2.10342743e-02 4.72499451e-05 4.05067485e-03 2.78780586e-03
      5.13358088e-03 3.65149193e-02 5.40653840e-02 -3.12045701e-02
      5.70420399e-02 -3.55198085e-02 -1.50545465e-03 2.37069838e-03
      -1.33131221e-02 -1.97591316e-02 -2.73120794e-02 2.47668917e-03
      2.47668917e-03 1.55437645e-02 1.45724453e-02 8.00307468e-03
      -4.41821897e-03 -2.49633994e-02 1.34932725e-02 9.59964283e-03
      1.49124442e-02 1.35132279e-02 1.12116178e-02 -2.23391950e-02
      -1.59399044e-02 -4.43658233e-03 5.89216920e-03 2.09545960e-05
      -5.07878698e-03 9.32917185e-03 2.47668917e-03 2.47668917e-03
      2.47668917e-03 -2.53270026e-02 -1.20828338e-02 1.36536546e-02
      7.18983635e-02 -2.49763485e-02 -2.76537202e-02 -2.60896217e-02
      1.37621043e-02 -1.93838440e-02 -2.27510873e-02 2.47668917e-03
      -1.11793098e-03 5.91772310e-02 9.39828008e-02 -7.07141077e-03
      -7.98793659e-02 -4.20525037e-02 -7.00115785e-02 -1.67641267e-02
      1.35715702e-03 7.29897013e-03 6.79514855e-02 9.59346443e-02
      -1.74088720e-02 -6.79566413e-02 -6.81716055e-02 -3.91849428e-02
      5.27189346e-04 7.93312676e-03 1.52511885e-02 8.85448307e-02
      1.72779635e-02 -6.25085309e-02 -9.19213817e-02 -1.20545523e-02
      -4.51938761e-03 1.17917487e-03 1.27793951e-02 -2.89715827e-02
      7.06741363e-02 5.14998697e-02 -1.61432754e-02 -5.14172353e-02
      -1.02915475e-02 -3.32214013e-02 -1.40398368e-02 -4.60101664e-03
      1.41084213e-02 3.46643813e-02 5.13108559e-02 -2.60922927e-02
      -4.93094735e-02 -1.84622258e-02 1.64851081e-03 7.61279091e-03
      2.19198093e-02 6.92741619e-03 5.80678741e-03 -5.68075590e-02
      1.01127457e-02 2.09963415e-02 5.11040799e-02 7.02825317e-04
      5.06748771e-03 1.37920557e-02 -3.13260220e-02 -3.84879997e-03
      2.76113451e-02 -2.26915237e-02 2.09963415e-02 3.33260484e-02
      -9.19006858e-03 -2.16842396e-04 1.08596804e-02 -5.13215875e-03
      -1.91120580e-02 -9.17228535e-02 -4.63097319e-02 2.09963415e-02
      5.66016063e-02 7.52393203e-03 7.58522796e-03 1.20438905e-02
      2.73066224e-03 -5.99294690e-05 -9.86929444e-06 -3.31343530e-04
      4.94698957e-02 1.66288279e-02 -3.99381242e-04 -3.77154388e-02
      -2.77046207e-02 -1.08357649e-02 1.80228837e-02 2.56829010e-03
      -8.71019252e-03 5.64296357e-03 1.13872783e-02 -4.47188923e-03
      -4.29490916e-02 -4.15274920e-03 2.29078531e-02 -1.10021996e-04
      -7.50337203e-05 -2.54897343e-04 3.51459682e-02 2.83197444e-02
      -3.99381242e-04 -5.74215949e-02 1.87717061e-02 -3.99381242e-04
      1.25544202e-02 6.99420273e-02 5.60731348e-03 3.61942919e-03
      1.51962927e-02 3.43533866e-02 -7.52830803e-02 -3.99381242e-04
      -2.92796567e-02 4.13353108e-02 4.15703841e-02 -2.92400569e-02
      -4.01428975e-02 -4.82949801e-03 -3.42127919e-06 -6.27760682e-03
      -3.54683325e-02 -9.27585512e-02 4.30060998e-02 6.77797720e-02
      4.37977090e-02 -4.47112098e-02 -1.43756978e-02 -3.10873389e-02
      -1.67504828e-02 -4.06448469e-02 1.02822771e-02 4.82712081e-03
      9.95384678e-02 9.73773841e-03 2.69614626e-04 -6.78869139e-04
      -3.64393287e-04 -2.29130723e-02 -2.43518837e-02 -8.50400105e-02
      -5.11179715e-02 7.84197524e-02 1.31036462e-02 5.19982353e-02
      -1.50892849e-03 -5.89926436e-04 2.56837557e-05 -9.12428722e-02
      -8.02352875e-02 -5.71539775e-02 -5.12677431e-03 7.08696432e-03
      9.34534445e-02 9.98329557e-03 -1.43723944e-02 -8.37413687e-03
      -2.98133492e-02 -2.11256742e-02 -6.16678074e-02 -8.53000656e-02
      -5.61728701e-02 6.28362224e-02 3.49751711e-02 2.07581930e-03
      9.61251324e-04 -7.15098344e-03 -7.89417624e-02 -7.75488839e-02
      -6.26353547e-02 2.43187998e-03 1.29413888e-01 5.84891997e-03
      2.87998393e-02 5.90236764e-03 -4.56437655e-02 -1.65217221e-02
      -5.91543876e-02 -5.64934537e-02 4.36026938e-02 1.11820444e-01
      1.38100758e-02 4.34283167e-02 8.84499960e-03 1.26189319e-02</_>
    <_>
      1.44083453e-02 2.04388350e-02 1.00064084e-01 4.56286147e-02
      1.05576955e-01 1.43266236e-02 -2.31196507e-04 -7.72619314e-05
      4.81884666e-02 4.56550112e-03 -8.14278424e-02 -9.09273475e-02
      1.91782620e-02 1.05198279e-01 1.07438518e-02 -1.30212822e-04
      -4.35149341e-05 2.84526218e-02 -1.50533132e-02 -1.22571759e-01
      -2.91140173e-02 1.05075121e-01 9.34648886e-02 1.38755552e-02
      -5.23668772e-04 -2.13834748e-04 6.11115107e-03 -3.19827870e-02
      -1.24007978e-01 -5.02178892e-02 7.13099986e-02 1.05322443e-01
      9.08949506e-03 -2.15115608e-04 -2.27222263e-04 -6.10766234e-03
      1.70520544e-02 -8.12656060e-02 -5.86532429e-02 9.28625464e-03
      7.26636276e-02 3.81150772e-03 1.65930425e-04 1.39636556e-02
      3.26604806e-02 -1.29228234e-02 -8.72370675e-02 -7.20351860e-02
      4.46463097e-03 6.65018931e-02 3.60351009e-03 -7.50172045e-03
      5.88161033e-03 1.60992183e-02 1.09372509e-03 -7.22128153e-02
      -1.31291535e-03 6.79899901e-02 1.55440643e-01 1.89136509e-02
      3.13407945e-04 2.07856596e-02 2.60279160e-02 -9.49673448e-03
      -8.11434314e-02 -3.66437137e-02 2.85776407e-02 5.62076233e-02
      -1.67904180e-02 1.23794738e-03 -1.52459778e-02 1.39103932e-02
      -2.21022479e-02 -5.59143461e-02 -2.85291169e-02 1.53490053e-02
      -6.76876828e-02 2.73473784e-02 -2.68614870e-02 -1.95281245e-02
      -2.44548004e-02 3.32710855e-02 0. 1.55861918e-02 2.45555807e-02
      -1.95710286e-02 9.94239002e-02 6.73836097e-02 1.03060063e-02
      6.27074465e-02 -1.60979461e-02 -4.33704704e-02 -1.66150294e-02
      2.55925395e-03 -1.95710286e-02 -1.64783839e-02 1.11316461e-02
      -4.14733216e-02 -1.79029889e-02 6.73660776e-04 -2.20246493e-05
      3.83064174e-03 7.58905662e-03 -1.95710286e-02 1.12531453e-01
      5.35625033e-02 3.82978283e-03 1.03459302e-02 -5.30960457e-03
      -1.01547636e-01 -6.64650872e-02 3.66170183e-02 1.42802447e-02
      1.81145202e-02 4.48646247e-02 6.59643253e-03 1.04044622e-03
      -1.14933550e-02 -9.67227146e-02 -4.58386950e-02 5.73938750e-02
      5.45163788e-02 1.08995633e-02 2.58976854e-02 -8.71287368e-04
      -5.10416552e-03 2.75832266e-02 -2.70255953e-02 -3.62851918e-02
      -2.00078860e-02 -4.90227155e-03 3.00992280e-02 9.79987383e-02
      2.76014023e-02 2.63552554e-02 2.62431987e-02 -1.99334901e-02
      -9.10391472e-03 3.61247882e-02 -4.40753140e-02 9.44565888e-03
      5.21641672e-02 -2.79077142e-03 2.23662797e-02 -2.61394046e-02
      -8.57014805e-02 -2.78943572e-02 6.89023286e-02 9.33261663e-02
      1.54987890e-02 8.00641440e-03 -3.05226212e-03 -2.05416102e-02
      -2.95516402e-02 -7.74506927e-02 -7.22139850e-02 -2.38561607e-03
      1.23845749e-02 7.22115347e-03 5.88680208e-02 -1.18669393e-02
      -2.24198345e-02 -4.90570217e-02 -1.04146218e-02 1.20232226e-02
      6.40460178e-02 6.94261417e-02 2.08907016e-02 5.75017137e-03
      -1.73439626e-02 -4.92742695e-02 -6.88779950e-02 -2.77210400e-02
      -2.62578391e-02 -1.95300430e-02 1.23845749e-02 8.81874934e-02
      1.03561744e-01 4.79688309e-02 -6.35075644e-02 -6.97736815e-03
      -1.63095240e-02 -9.14225448e-03 -8.17110296e-03 1.77412611e-02
      -5.52486666e-02 5.16627356e-03 -1.76164042e-02 -6.99298922e-03
      -5.82482293e-03 3.58535675e-03 1.04149384e-02 2.53794063e-02
      1.77412611e-02 -1.63473804e-02 -2.06556730e-02 -1.94149464e-02
      -1.82996485e-02 -3.33099291e-02 2.57608923e-03 5.84183484e-02
      -5.66542847e-03 -2.48461179e-02 -1.16054751e-02 4.38280068e-02
      2.36374661e-02 -2.37493552e-02 -4.37820815e-02 2.64391229e-02
      1.20968148e-01 9.08386707e-02 1.77412611e-02 -4.37597819e-02
      -9.61970091e-02 -9.31795910e-02 -9.12006348e-02 -2.24772897e-02
      2.74925638e-04 1.53435671e-04 -3.53028090e-03 -2.30042469e-02
      4.24253605e-02 5.92630059e-02 2.35222522e-02 -2.53809802e-02
      -2.39211544e-02 2.95722187e-02 5.86619936e-02 1.08370213e-02
      -4.49690334e-02 2.57279654e-03 2.85843853e-02 2.52746930e-03
      -2.42850203e-02 -8.64653438e-02 9.72297415e-03 7.37406008e-05
      -7.02139281e-04 -7.01035857e-02 3.25278118e-02 4.64643762e-02
      6.48795143e-02 -4.94645052e-02 -2.30042469e-02 8.49308819e-02
      8.49116221e-02 4.49449709e-03 -3.87387903e-04 1.94243225e-03
      5.04137091e-02 7.35522732e-02 -2.30042469e-02 -4.72971275e-02
      4.02721502e-02 7.94622675e-02 1.74426530e-02 1.20394984e-02
      1.80393234e-02 2.58193500e-02 6.11958967e-04 -3.93859260e-02
      -4.88725640e-02 9.66513064e-03 1.71931889e-02 -3.17618577e-03
      1.19608585e-02 5.48298098e-02 7.16320500e-02 4.64465059e-02
      -3.27321924e-02 -4.35787998e-02 8.85063112e-02 8.85063112e-02
      6.92735752e-03 2.80526690e-02 3.57684977e-02 7.25649148e-02
      1.96686499e-02 -5.79821765e-02 -3.51745076e-02 2.73985844e-02
      2.50489712e-02 -7.93082826e-03 -4.88154627e-02 4.73570302e-02
      -3.76200816e-03 3.84394713e-02 -1.36993853e-02 -2.47551538e-02
      7.01525528e-03 5.02667241e-02 8.35240353e-03 -1.90631561e-02
      9.78131965e-03 3.22583877e-02 3.36008146e-02 -1.51318731e-02
      -6.20024092e-02 2.79416167e-03 6.74482733e-02 6.61700070e-02
      1.44365029e-02 -1.83016062e-02 -4.17092033e-02 -3.73121910e-02
      -5.48996143e-02 1.71908829e-02 9.17759351e-03 5.76995173e-03
      -4.48836498e-02 -6.32396266e-02 -1.09839691e-02 5.50114503e-03
      4.59920382e-04 -3.09096038e-04 -1.47044808e-02 4.92953230e-03
      1.44365029e-02 -1.67522617e-02 6.91427663e-03 -1.38866957e-02
      -9.23317391e-03 -3.86095070e-03 -4.49854471e-02</_>
    <_>
      -1.01760820e-01 2.72348095e-02 9.28559899e-02 3.74726765e-02
      1.16512990e-02 1.91798415e-02 7.82197676e-05 2.61396708e-05
      -2.53575072e-02 -1.18684195e-01 1.28740976e-02 4.84618768e-02
      2.67105848e-02 1.25919223e-01 1.47678694e-02 1.13676375e-04
      -5.77836577e-03 -8.84538069e-02 -2.37181056e-02 -3.81647348e-02
      6.04090579e-02 8.08627903e-02 1.16512990e-02 1.72306113e-02 0. 0.
      -1.22831548e-02 -1.02375396e-01 -1.20190710e-01 3.45796160e-02
      8.79456922e-02 1.16512990e-02 -4.62234281e-02 -2.04773480e-03
      -8.85955393e-02 -9.84823257e-02 -1.00037418e-01 2.52165962e-02
      5.67100383e-02 1.29334601e-02 4.83979378e-03 -2.41422895e-02
      -4.45843413e-02 -1.01323221e-02 -1.25692412e-01 2.42200363e-02
      1.68027934e-02 3.80722918e-02 6.74470654e-03 -3.02017573e-02
      -3.58548015e-02 -6.71654567e-02 2.87296646e-03 -1.87195875e-02
      -3.34321968e-02 6.35276490e-04 1.24351501e-01 9.66316760e-02
      4.15009372e-02 -7.20106661e-02 -1.23074343e-02 -4.40690480e-02
      -1.96464844e-02 2.57942006e-02 2.53867526e-02 8.73638764e-02
      4.11831141e-02 4.15009372e-02 1.21580511e-02 -1.48807820e-02
      3.72601375e-02 5.70736639e-02 1.74783431e-02 -1.27298729e-02
      1.07705519e-02 7.19852559e-03 -9.52390730e-02 4.58227210e-02
      1.54059439e-03 1.08621083e-03 2.80971080e-02 3.32085639e-02
      -5.00699282e-02 6.44044159e-03 -2.67937835e-02 -2.82244477e-02
      2.86660977e-02 6.64876774e-02 -3.27138826e-02 8.80960673e-02
      2.09010346e-03 7.40336109e-05 3.83948931e-03 -1.02900458e-03
      -2.82244477e-02 7.26530477e-02 1.34499958e-02 3.49052274e-03
      8.89972877e-03 9.94963921e-04 -1.35340408e-04 5.42692887e-03
      -1.63505021e-02 -2.82244477e-02 8.44173357e-02 1.89944822e-02
      5.33394236e-03 1.44940913e-02 -2.18661316e-03 -3.03130355e-02
      -3.24600413e-02 -5.67887723e-03 -5.74401915e-02 2.47181747e-02
      6.26609623e-02 9.29088984e-03 -2.51717609e-03 -1.53901381e-02
      -7.23969117e-02 4.73061809e-03 7.99339935e-02 -5.74401915e-02
      -4.17958908e-02 4.80863191e-02 -3.99981625e-02 -1.67123899e-02
      4.16540466e-02 -2.81854096e-04 -2.64579169e-02 -6.14889301e-02
      -5.74401915e-02 4.73948941e-02 1.36636943e-01 3.84814814e-02
      3.82506847e-02 1.35161743e-01 2.51752492e-02 1.15304641e-01
      4.23123799e-02 -1.11998573e-01 -3.53273973e-02 6.92286864e-02
      4.36643250e-02 1.30393907e-01 -8.61951988e-03 -1.16959168e-02
      7.81915933e-02 1.01368904e-01 -1.62041467e-02 -5.11506610e-02
      1.20385904e-02 -3.05853337e-02 -6.82882918e-03 -6.75833609e-04
      2.22084858e-03 2.63294205e-02 2.75586192e-02 -1.62041467e-02
      2.45570950e-02 5.71117476e-02 1.80827058e-03 2.62877904e-03
      5.82258813e-02 1.75975747e-02 1.32540599e-01 9.33282152e-02
      -3.03490665e-02 -8.87883008e-02 -8.65469202e-02 2.91014952e-03
      5.80147989e-02 9.21687763e-03 5.15184738e-03 2.02877261e-02
      2.09433418e-02 -1.62041467e-02 -1.03818467e-02 -1.62041467e-02
      3.30246873e-02 -2.90563665e-02 -2.89399148e-04 7.80570321e-04
      -1.97775080e-03 6.20157411e-03 1.19342317e-03 1.60159022e-02
      2.04482004e-02 -1.85747151e-04 1.20580713e-04 -1.48627485e-04
      7.29583553e-04 -8.87052622e-03 6.06845226e-03 1.19342317e-03
      1.37122255e-02 -1.64027710e-03 0. -6.21791769e-05 -1.91567801e-02
      1.74613744e-02 -4.26098816e-02 2.11141296e-02 -3.40788066e-02
      3.33597767e-03 2.02855207e-02 5.02640195e-02 -4.91517521e-02
      -1.33371726e-02 8.03091563e-03 1.18943071e-03 5.27330972e-02
      1.19342317e-03 3.15727317e-04 0. 1.41630284e-02 -3.20804934e-03
      1.15289791e-02 -1.80040952e-02 -3.93461734e-02 -1.51927486e-01
      -3.53066772e-02 3.79515886e-02 1.12618215e-01 4.15638350e-02
      3.67663316e-02 1.11645997e-01 3.71254832e-02 7.15329722e-02
      -8.53459090e-02 -1.38531715e-01 -5.99771589e-02 -2.78523490e-02
      2.48810910e-02 1.16489545e-01 -9.66628343e-02 -1.38048176e-02
      -6.21190220e-02 -1.21876553e-01 -1.23490296e-01 -4.19724180e-04
      9.55692232e-02 7.89897591e-02 3.68153825e-02 8.68326202e-02
      1.11241423e-01 8.16290230e-02 -7.56285787e-02 -1.28610626e-01
      -3.65519859e-02 5.18715009e-02 1.09383531e-01 1.06574565e-01
      7.31924176e-02 5.64021878e-02 1.18427053e-01 2.37757191e-02
      -8.99460167e-02 -9.09035355e-02 -6.86594397e-02 9.80164949e-03
      8.42107683e-02 3.01822126e-02 2.56845076e-02 2.91640088e-02
      5.65908011e-03 -6.00941554e-02 -3.67518440e-02 7.23959226e-03
      4.00172547e-02 -1.34666087e-02 7.08894655e-02 1.23254806e-01
      1.23229608e-01 8.20653792e-03 -7.69381821e-02 -6.62111714e-02
      -1.61382384e-04 -4.02989499e-02 4.23324481e-02 1.69948228e-02
      4.44273353e-02 4.85195778e-02 2.08162237e-03 -1.91703755e-02
      -2.73768026e-02 3.22259404e-02 -2.90183686e-02 4.85725561e-03
      -2.21145656e-02 1.59663763e-02 -1.53134596e-02 1.51944989e-02
      -3.70709272e-03 7.05292216e-03 1.37756914e-02 4.42239083e-02
      -4.87241223e-02 -1.90335792e-02 2.53668539e-02 3.51965334e-03
      3.51965334e-03 3.51965334e-03 4.03603684e-04 -5.81243057e-07
      1.19090267e-02 2.70308368e-03 3.51965334e-03 1.30121894e-02
      4.05239351e-02 6.16485393e-03 7.65633350e-03 7.34089641e-03
      1.10204294e-01 -3.63171063e-02 -3.47190239e-02 1.18381344e-03
      1.02772340e-02 3.51965334e-03 -5.97776435e-02 1.42277200e-02
      -1.11865031e-03 -3.76256503e-04 -1.25738457e-04 -2.27550771e-02</_>
    <_>
      -1.13857649e-02 -5.51886186e-02 1.36858737e-02 3.64185832e-02
      1.21021807e-01 1.62887163e-02 -1.70814164e-05 -5.70830525e-06
      4.88145724e-02 -9.51711386e-02 -9.67155546e-02 -5.18251657e-02
      2.09608842e-02 1.23113513e-01 1.24976365e-02 -2.86733630e-05
      -9.58213877e-06 -1.32484399e-02 -3.20156217e-02 -6.17778525e-02
      1.36858737e-02 3.13075744e-02 6.34048581e-02 1.60233341e-02
      -1.23616570e-04 -4.13104863e-05 7.30122067e-03 -1.07492603e-01
      -9.66982022e-02 -1.08629121e-02 6.13661446e-02 7.20597506e-02
      -2.04568524e-02 -1.47098657e-02 -5.76723178e-05 -8.20454955e-02
      -7.20305964e-02 -6.65562153e-02 3.38432081e-02 1.08021060e-02
      8.44241530e-02 4.43368359e-03 2.26133838e-04 1.62540954e-02
      -5.25241382e-02 -6.61726967e-02 4.72793076e-03 3.17496732e-02
      5.63322101e-03 1.20700695e-01 6.62925420e-03 1.63822697e-04
      -1.21754212e-02 -4.75814417e-02 -7.97341093e-02 -5.90674637e-04
      2.42871195e-02 4.98857424e-02 7.66488388e-02 -3.32740992e-02
      -2.50431933e-02 2.42085885e-02 -3.69347557e-02 -7.98301771e-02
      -3.53252850e-02 -3.13591920e-02 -1.73547938e-02 9.66855735e-02
      3.44939902e-02 -2.23985445e-02 2.91635636e-02 -4.99202348e-02
      -6.12488762e-02 -6.12816211e-06 1.21034393e-02 1.93085279e-02
      8.59684125e-02 4.36328128e-02 -2.52226610e-02 -9.38637853e-02
      -7.51039684e-02 1.71039999e-02 -8.92542448e-05 1.79155841e-02
      2.95801517e-02 1.19350836e-01 8.96531790e-02 7.81849900e-04
      -8.59809667e-02 5.34733990e-03 -1.01980612e-01 -2.34246012e-02
      -2.31153052e-02 -4.80076252e-03 1.23587273e-01 5.38947247e-02
      -9.07350183e-02 -4.08782586e-02 -9.62931663e-02 -2.63415873e-02
      -1.30009794e-04 4.35255002e-03 9.80571751e-03 3.82976383e-02
      3.82976383e-02 -4.15170044e-02 -8.21135044e-02 -4.58758846e-02
      -1.29988305e-02 -2.62038112e-02 -7.82652125e-02 -4.44205292e-02
      -6.65312400e-03 2.15021465e-02 5.23209795e-02 7.75518175e-03
      1.27644371e-03 -5.05480766e-02 -4.70795073e-02 -5.42718470e-02
      8.27217009e-03 -6.65312400e-03 -8.34950246e-03 3.30911763e-02
      9.46250837e-03 -2.59668436e-02 3.38838622e-02 -6.67517632e-03
      -6.97316900e-02 -8.45662430e-02 -6.65312400e-03 1.52817806e-02
      1.10101916e-01 3.21399719e-02 3.21727544e-02 1.09336540e-01
      1.18103372e-02 5.81527501e-02 -1.57718789e-02 -5.22206239e-02
      -2.89862547e-02 9.00972262e-02 3.64687145e-02 1.09880008e-01
      -2.71426328e-02 -9.83161572e-03 -1.61074419e-02 3.61969485e-03
      7.52287917e-03 -2.00298373e-02 -5.47818653e-03 3.12138232e-03
      -1.99213214e-02 -5.71614467e-02 -2.71255113e-02 -9.08852145e-02
      -4.94585373e-02 7.52287917e-03 5.43860197e-02 4.34569977e-02
      -4.56703739e-04 -2.79163942e-02 4.71293963e-02 1.29276644e-02
      8.03946480e-02 4.78600571e-03 -4.29104595e-03 -4.49622795e-02
      -7.92201310e-02 -6.54590607e-04 4.85121459e-02 1.37401454e-03
      7.37106369e-04 -1.09682428e-02 -1.61495898e-02 7.52287917e-03
      7.41959214e-02 7.52287917e-03 9.73618031e-03 6.84624910e-03
      -5.75195961e-02 -1.41730625e-02 -1.88411251e-02 -9.31360573e-03
      6.57529533e-02 3.94785660e-04 -6.97752386e-02 -3.00285257e-02
      -4.89912964e-02 -1.11111086e-02 4.20836452e-03 1.22961495e-02
      6.55988511e-03 2.68722456e-02 -8.97848532e-02 -1.10774584e-01
      -3.46123800e-02 -1.87000688e-02 -7.91933481e-03 -5.29450551e-03
      8.50631762e-03 -1.39697585e-02 -4.03720187e-03 2.01910865e-02
      3.01940050e-02 2.86704581e-02 -5.33367507e-03 1.18070329e-03
      -5.43451076e-03 2.68689115e-02 1.16722137e-02 2.68722456e-02
      -4.08684015e-02 -1.10219056e-02 5.83763188e-03 1.65091583e-03
      1.33424103e-02 3.50753631e-04 -7.08955247e-03 -3.88837941e-02
      -1.80452503e-02 -5.30510060e-02 5.96257374e-02 3.49278264e-02
      2.95371804e-02 9.41994786e-02 3.48544046e-02 7.63132572e-02
      -6.00094954e-03 -1.04259439e-01 -1.06389605e-01 -6.75891479e-03
      1.92137975e-02 9.70239341e-02 -7.65910819e-02 1.17055215e-02
      1.69459629e-04 -5.31182550e-02 -9.16967541e-02 -6.86958581e-02
      3.42782065e-02 6.65942878e-02 1.94873773e-02 7.27858618e-02
      9.88059118e-02 9.88059118e-02 -2.28528604e-02 -1.08648248e-01
      -8.52271691e-02 -1.02676509e-03 8.50663483e-02 8.57646987e-02
      6.07244335e-02 4.71074581e-02 9.89110097e-02 1.22742057e-02
      -8.40355158e-02 -8.48352388e-02 -6.62568286e-02 -3.16470442e-03
      7.02159107e-02 -1.90052472e-03 1.50220376e-02 2.68109869e-02
      2.38846242e-03 -1.64768547e-02 8.89315456e-03 -2.86549050e-03
      -2.11681072e-02 1.79065298e-02 6.40903190e-02 1.02953739e-01
      1.02953739e-01 8.05815216e-03 -3.63354459e-02 -6.42120242e-02
      -2.14091055e-02 -1.18459752e-02 1.17765721e-02 -2.24740691e-02
      3.18309516e-02 3.83530036e-02 2.28231959e-03 4.04263288e-02
      2.17519584e-03 -2.86549050e-03 1.38292694e-03 -4.85523278e-03
      -2.22727023e-02 -1.86340678e-02 -1.46070197e-02 -7.61891250e-04
      5.28160902e-03 1.61924288e-02 1.19135948e-02 1.31985694e-02
      -1.86265241e-02 -1.53192354e-03 -1.35507677e-02 -6.76529016e-03
      -6.76529016e-03 2.02888474e-02 7.51173997e-04 -5.05002899e-05
      9.87553690e-03 -2.12622085e-03 -6.76529016e-03 1.45991268e-02
      -1.06528541e-02 2.13381764e-03 1.14788841e-02 8.37422721e-03
      8.33988637e-02 5.65319601e-03 -3.87024730e-02 1.38144242e-03
      3.39468531e-02 -6.76529016e-03 -4.32671309e-02 7.49234781e-02
      -5.90521318e-04 1.98852795e-04 3.02914777e-05 -1.57732293e-02</_>
    <_>
      2.24651280e-03 3.24893859e-03 7.00648874e-02 8.99428967e-03
      -2.88004521e-02 -4.61164452e-02 -2.15534419e-02 -1.33236330e-02
      1.25430729e-02 6.94101304e-03 8.49864166e-03 3.38940285e-02
      1.45748230e-02 -2.66538113e-02 -2.46332046e-02 -1.25556579e-02
      -3.31355305e-03 1.98107064e-02 2.33336265e-04 9.61376727e-03
      8.14317688e-02 3.88653614e-02 -2.88004521e-02 -3.08982935e-02
      -1.06761069e-03 0. 6.65909285e-03 -4.74512170e-04 7.95886293e-03
      6.51536807e-02 3.39930616e-02 -2.88004521e-02 -1.88525133e-02
      -2.58415355e-04 2.83630811e-06 4.62401751e-03 2.13003922e-02
      1.39133064e-02 3.12675610e-02 7.09041907e-03 1.72580965e-02
      2.92896945e-03 1.62336248e-04 1.07420702e-02 2.72713955e-02
      2.14641187e-02 -1.05503330e-03 2.10064612e-02 3.37432488e-03
      7.73627013e-02 4.37940238e-03 1.08224165e-04 1.60678998e-02
      3.67813818e-02 -1.70476045e-02 -2.97566243e-02 2.93061286e-02
      5.33305258e-02 5.09620123e-02 1.45925954e-02 2.60571920e-04
      1.59991123e-02 1.93326231e-02 -9.95881855e-02 -1.01763397e-01
      -6.75674006e-02 2.13345438e-02 1.14091985e-01 3.20276543e-02
      1.09128491e-03 2.39873696e-02 -5.20903058e-02 7.64575845e-04
      -2.42638346e-02 -6.74712053e-03 1.26131307e-02 5.60743399e-02
      2.88246069e-02 5.51633816e-03 1.38168503e-03 1.76390484e-02
      -1.90958716e-02 -8.04833323e-02 -2.57635862e-02 1.95055641e-02
      8.63889456e-02 7.75227621e-02 4.67680506e-02 1.17124766e-02
      2.64566783e-02 -7.40482733e-02 -8.04424807e-02 -7.83648863e-02
      3.06867552e-03 9.17651728e-02 4.28373143e-02 8.53831414e-03
      2.07031914e-03 -1.25592509e-02 -7.93005154e-02 -8.04833323e-02
      -7.74890110e-02 -1.56474356e-02 1.34039680e-02 7.68214762e-02
      2.06183293e-03 2.82999570e-03 -1.41051896e-02 5.85033908e-04
      -1.12620287e-03 2.80814916e-02 5.64284250e-03 -1.83241479e-02
      -9.08323971e-04 2.61803679e-02 5.12626674e-03 1.08018983e-03
      -8.90774280e-03 -3.95458043e-02 3.07385251e-02 3.10749542e-02
      -1.83241479e-02 -3.37676471e-03 2.06404794e-02 6.25568535e-03
      3.14616412e-03 1.93838961e-03 -1.86708551e-02 -2.99349544e-03
      -8.27956852e-03 -1.83241479e-02 -2.59734709e-02 3.71257327e-02
      2.12322325e-02 6.83524320e-03 7.11092213e-03 -7.94136152e-02
      1.61169190e-02 3.26082371e-02 -8.41720961e-03 -3.71029004e-02
      3.97913791e-02 2.40782965e-02 3.77902165e-02 -2.75243931e-02
      -7.83369988e-02 4.07305895e-04 5.59656285e-02 6.95312023e-02
      1.13243517e-02 1.02388645e-02 2.06271140e-03 -6.02059416e-04
      -5.17727211e-02 -8.13044161e-02 -6.79724738e-02 1.51852043e-02
      7.91460723e-02 4.42813598e-02 4.51227091e-02 2.00148975e-03
      -1.38893100e-02 -2.77274344e-02 -7.27807730e-02 -1.99357769e-03
      5.16688786e-02 6.78735897e-02 1.30480435e-02 2.06051525e-02
      2.78226938e-03 1.51314465e-02 -3.98301370e-02 -7.91350454e-02
      -6.11345358e-02 1.18823629e-02 7.89235011e-02 7.45752603e-02
      7.93045983e-02 3.69724706e-02 1.49494018e-02 -5.01455329e-02
      -7.65884668e-02 -7.29689300e-02 1.14284316e-02 9.23939794e-02
      1.83622073e-02 1.58543922e-02 2.15952197e-04 -1.27385659e-02
      -3.19743715e-02 -7.56848529e-02 -7.03453571e-02 -1.95848588e-02
      4.99489047e-02 1.21329287e-02 -3.09116440e-03 -7.64911892e-05
      -5.70138730e-03 -1.98989883e-02 -6.09998293e-02 -9.60231945e-03
      2.47957390e-02 5.98453693e-02 2.50992943e-02 6.37886524e-02
      3.99461351e-02 1.20294122e-02 -2.57478151e-02 -5.81380464e-02
      1.45640383e-02 5.65915331e-02 9.02818367e-02 1.00379821e-03
      -3.94461167e-05 7.71823805e-03 -4.55929432e-03 -2.63942895e-03
      -1.11963637e-02 -4.06765146e-03 -1.08670094e-04 -1.16854599e-02
      1.60893369e-02 4.94866632e-02 2.83554737e-02 3.54263000e-03
      -5.55040361e-03 -5.39329536e-02 1.91941659e-03 1.01932036e-02
      2.64171720e-03 -1.67531483e-02 2.53245085e-02 1.37173505e-02
      2.74020229e-02 -4.75379489e-02 -6.92142770e-02 -2.25462820e-02
      -2.78220599e-04 -6.03409447e-02 -2.40273518e-03 6.02509528e-02
      4.82619368e-02 2.49857623e-02 -1.16854599e-02 -1.16854599e-02
      -1.16854599e-02 3.05170380e-03 4.78943903e-03 2.89014773e-03
      4.60904688e-02 6.01981506e-02 3.35868336e-02 -1.80514921e-02
      -4.77886237e-02 1.42366416e-03 1.37340967e-02 1.39439413e-02
      1.28514459e-02 2.56646872e-02 6.09717285e-03 2.88388636e-02
      -1.05733071e-02 -6.40891194e-02 -5.44737242e-02 3.38296220e-03
      2.65084021e-02 4.37406972e-02 6.79122582e-02 3.83201949e-02
      4.00385559e-02 -2.33652629e-02 -1.08955847e-02 -1.08955847e-02
      4.68919892e-03 2.09442917e-02 2.73511074e-02 5.56966476e-02
      1.49887418e-02 1.27334939e-02 1.15409326e-02 -5.43062761e-02
      -4.75305095e-02 1.34920096e-03 3.90558094e-02 4.73820269e-02
      6.79965168e-02 4.80076559e-02 5.01153767e-02 -4.39080074e-02
      -8.75239000e-02 -4.74629737e-02 1.43589349e-02 1.50495609e-02
      1.25725400e-02 4.12895083e-02 3.45780887e-02 2.16470510e-02
      -3.41418050e-02 -7.16863275e-02 -2.87205130e-02 6.80496320e-02
      7.08859861e-02 6.45582331e-04 8.75771075e-05 6.53003389e-03
      9.24314645e-06 4.79015559e-02 -5.60246445e-02 4.70638648e-03
      7.85461813e-03 1.12733059e-02 7.64824124e-03 6.49061203e-02
      1.93367600e-02 4.03998531e-02 4.26835008e-02 5.87959327e-02
      7.02873990e-02 3.68481316e-02 6.53071329e-02 1.06120569e-04
      1.31365654e-04 4.39000942e-05 1.11879045e-02</_>
    <_>
      -7.93127045e-02 -9.17504951e-02 3.68137620e-02 8.72420706e-03
      1.51822865e-01 2.32728533e-02 9.12321993e-05 3.04881978e-05
      4.44423519e-02 -1.15203999e-01 -9.28037539e-02 2.64540799e-02
      2.81641725e-02 1.68252662e-01 1.73946172e-02 -1.68537740e-02
      -7.00767115e-02 -7.99445584e-02 -8.83541033e-02 -9.15351287e-02
      3.68137620e-02 3.68137620e-02 3.68137620e-02 2.23988723e-02 0. 0.
      -3.64155211e-02 -1.32410794e-01 -7.51669109e-02 8.60870555e-02
      6.98353276e-02 1.22218266e-01 -1.75189562e-02 -8.99778679e-02
      -1.35320172e-01 -1.24588341e-01 -2.79950351e-02 2.05080304e-02
      6.58736005e-02 1.50850359e-02 9.57758725e-02 -3.39107215e-02
      -1.21331498e-01 -1.23570532e-01 -7.78336599e-02 4.69187982e-02
      1.97112300e-02 4.44058962e-02 7.11358711e-03 5.89058101e-02
      -1.18096933e-01 -1.47444755e-01 -7.25560263e-02 5.69149405e-02
      -4.05664034e-02 3.73426713e-02 1.59234270e-01 1.11688226e-01
      1.27682790e-01 -8.11092779e-02 -1.47122696e-01 -9.51049551e-02
      -1.32810809e-02 3.20859179e-02 2.96100248e-02 1.01897500e-01
      9.90854343e-04 1.05056129e-01 -7.99697563e-02 -1.45366639e-01
      2.40422804e-02 7.10875317e-02 9.49259847e-03 -9.30543151e-03
      6.25781558e-06 1.98146645e-02 -8.88640955e-02 1.78816896e-02
      -3.81479375e-02 -8.63574911e-03 3.89722548e-02 -2.75661461e-02
      -3.74236330e-02 -4.27774191e-02 1.48997996e-02 -2.54083723e-02
      1.03021652e-01 1.49013987e-02 -1.31579200e-02 8.69980752e-02
      2.57265964e-03 -2.25126860e-03 2.26259872e-04 -3.47847939e-02
      -2.54083723e-02 -3.99789400e-02 -2.10754778e-02 1.79530389e-03
      1.05151162e-02 1.05658092e-03 -9.35046934e-03 -1.66412722e-02
      -2.51009669e-02 -2.54083723e-02 1.57068372e-01 1.14160273e-02
      -6.94699865e-03 1.67686772e-02 -2.21601110e-02 -3.13687585e-02
      -5.30575812e-02 -5.52171394e-02 1.71942655e-02 -4.34344560e-02
      5.24279028e-02 1.08364979e-02 -1.28114559e-02 -5.56465611e-02
      -2.23812144e-02 4.99780104e-02 5.34165055e-02 3.60347703e-02
      -3.85126993e-02 -2.36564465e-02 -3.57662141e-02 -3.86353694e-02
      3.73008624e-02 1.86066041e-04 -8.97645112e-03 -9.74768773e-03
      1.71942655e-02 -8.60400572e-02 1.71942655e-02 -5.81557825e-02
      -2.23576874e-02 4.15373556e-02 6.56617945e-03 5.38081490e-02
      2.74259988e-02 -1.41350292e-02 -5.62511086e-02 5.00286445e-02
      -7.50268325e-02 1.12731187e-02 -1.19666066e-02 7.04605505e-03
      8.61125216e-02 7.62065724e-02 2.92557920e-03 -5.00231609e-02
      -1.00471087e-01 -2.75853127e-02 -8.20417888e-03 -1.75318529e-03
      2.62211799e-03 1.74495969e-02 -1.06547192e-01 2.92557920e-03
      -2.74877604e-02 2.69148424e-02 8.00258538e-04 3.17369122e-03
      1.56227108e-02 -5.32991067e-03 8.90212599e-03 -2.16079131e-02
      -1.35724517e-02 8.00648425e-03 3.25337313e-02 -5.25841396e-03
      1.16203269e-02 -2.71719377e-02 -4.92694192e-02 -4.39503007e-02
      -1.40186772e-01 2.92557920e-03 1.17818974e-01 1.04889855e-01
      4.77817059e-02 2.07782015e-02 -2.21185712e-03 3.18752532e-03
      -3.36638466e-02 -6.46845028e-02 2.20876914e-02 -6.39739446e-03
      3.17113064e-02 5.34958264e-04 -1.73511889e-05 -6.83615101e-04
      4.68600309e-03 -8.85808617e-02 -2.64783427e-02 2.20876914e-02
      3.02037168e-02 1.36752566e-03 0. -2.54534447e-04 -3.20222266e-02
      -5.85671850e-02 -1.77101288e-02 -5.45033962e-02 -4.70932871e-02
      4.47186418e-02 1.00468069e-01 6.47027120e-02 2.10010745e-02
      -2.18839059e-03 -4.60659154e-03 2.20830347e-02 8.60994973e-04
      2.20876914e-02 1.25095889e-03 0. 1.65191516e-02 9.76200867e-03
      2.35295929e-02 3.08662798e-04 1.25770777e-04 1.08808279e-03
      6.74457476e-02 -2.18444485e-02 -1.76862273e-02 -5.72144017e-02
      -4.67774123e-02 1.38213416e-03 1.63930692e-02 6.06754571e-02
      5.95784280e-04 6.95481955e-04 -1.18928310e-02 2.43532173e-02
      -8.51515755e-02 -1.97667759e-02 7.06862425e-03 1.61825791e-02
      1.79631068e-04 -2.64479924e-04 1.60812214e-02 1.55888768e-02
      -1.76862273e-02 -1.76862273e-02 -2.79425234e-02 -1.76862273e-02
      1.29337028e-01 1.37607336e-01 7.12690968e-03 1.01563390e-02
      3.48388101e-03 5.25730960e-02 -2.80388594e-02 -1.76862273e-02
      -2.60694344e-02 9.50196292e-03 2.98143383e-02 -4.74289842e-02
      -4.11751121e-02 2.01493111e-02 5.38852476e-02 -2.58365017e-03
      -1.67541765e-02 -7.78676942e-02 -4.03940864e-02 -1.19184470e-02
      -5.40864691e-02 -1.04945600e-01 5.73911257e-02 8.81185010e-02
      5.13244495e-02 3.76662426e-02 -6.92682490e-02 6.56488612e-02
      1.34417444e-01 1.09964842e-02 4.16296124e-02 5.69451638e-02
      1.17255859e-01 -7.23949401e-03 -9.26657841e-02 -5.56159168e-02
      -1.09718606e-01 1.11829024e-02 3.01613891e-03 8.07437897e-02
      9.59474817e-02 1.42381877e-01 1.01399355e-01 -2.07306966e-02
      -6.34809360e-02 -1.03002571e-01 -2.39319447e-02 -1.19438823e-02
      -3.16571258e-02 1.72593482e-02 5.73859289e-02 5.63228577e-02
      2.52504405e-02 -8.56596511e-03 -4.62783985e-02 1.15618750e-03
      1.15618750e-03 3.38660702e-02 2.55148130e-04 1.85130659e-04
      1.39522748e-02 1.38098383e-02 1.15618750e-03 -8.86396468e-02
      -2.79508773e-02 1.10824024e-02 2.13401653e-02 1.48098106e-02
      1.36755690e-01 4.08224314e-02 1.18305981e-02 3.23818363e-02
      -1.42873898e-02 1.15618750e-03 1.96220931e-02 1.05267704e-01
      -5.15375868e-04 1.70253916e-04 5.68957694e-05 1.28222182e-02</_>
    <_>
      -7.04328418e-02 -7.11938133e-04 -2.68881451e-02 -1.50758140e-02
      -7.82742053e-02 -4.47248516e-04 2.31380065e-04 7.73232532e-05
      -5.34612015e-02 -7.22913817e-02 7.30083659e-02 1.01231806e-01 0.
      -1.19072394e-02 -1.13120157e-04 1.70566986e-04 -3.30562587e-03
      -7.40480199e-02 -1.59134378e-03 7.66300708e-02 5.83669804e-02
      -3.78566794e-02 -6.85216114e-02 -1.21096522e-03 4.21656325e-04
      1.72179018e-04 -1.20219756e-02 -3.34341638e-02 3.03645805e-02
      6.04268909e-02 -6.57426380e-03 -7.80692697e-02 -3.40421237e-02
      -1.01065275e-03 -5.10370471e-02 -5.20180166e-02 -7.15651885e-02
      8.00133348e-02 8.00133348e-02 0. -5.57104647e-02 -1.70264691e-02
      -2.59092879e-02 -1.71013195e-02 -9.89650413e-02 2.44078171e-02
      7.99572468e-02 8.00133348e-02 3.04432004e-04 -7.10077286e-02
      -2.36303788e-02 -3.27902101e-02 -3.07489606e-03 -2.37854477e-02
      -2.02089213e-02 5.85127920e-02 7.29488656e-02 1.12065650e-03
      -1.01167217e-01 -5.68609536e-02 -7.36768916e-03 -4.22143154e-02
      -3.23158726e-02 2.25592181e-02 8.00133348e-02 8.00133348e-02
